digraph Tree {
node [shape=box] ;
0 [label="X[0] <= -0.17\nentropy = 0.65\nsamples = 54000\nvalue = [[45000, 9000]\n[45000, 9000]\n[45000, 9000]\n[45000, 9000]\n[45000, 9000]\n[45000, 9000]]"] ;
1 [label="X[1] <= 1.831\nentropy = 0.599\nsamples = 29090\nvalue = [[21772, 7318]\n[27113, 1977]\n[28268, 822]\n[24492, 4598]\n[22605, 6485]\n[21200, 7890]]"] ;
0 -> 1 [labeldistance=2.5, labelangle=45, headlabel="True"] ;
2 [label="X[2] <= 0.711\nentropy = 0.595\nsamples = 24896\nvalue = [[21723, 3173]\n[22931, 1965]\n[24081, 815]\n[20326, 4570]\n[18413, 6483]\n[17006, 7890]]"] ;
1 -> 2 ;
3 [label="X[609] <= 0.072\nentropy = 0.566\nsamples = 17733\nvalue = [[15565, 2168]\n[16229, 1504]\n[17005, 728]\n[13454, 4279]\n[16276, 1457]\n[10136, 7597]]"] ;
2 -> 3 ;
4 [label="X[646] <= 0.144\nentropy = 0.405\nsamples = 10145\nvalue = [[9975, 170]\n[9972, 173]\n[9949, 196]\n[7219, 2926]\n[9786, 359]\n[3824, 6321]]"] ;
3 -> 4 ;
5 [label="X[1] <= -1.073\nentropy = 0.462\nsamples = 6495\nvalue = [[6344, 151]\n[6334, 161]\n[6322, 173]\n[3642, 2853]\n[6163, 332]\n[3670, 2825]]"] ;
4 -> 5 ;
6 [label="X[633] <= -1.076\nentropy = 0.296\nsamples = 2878\nvalue = [[2852, 26]\n[2779, 99]\n[2846, 32]\n[2476, 402]\n[2848, 30]\n[589, 2289]]"] ;
5 -> 6 ;
7 [label="X[558] <= 0.155\nentropy = 0.439\nsamples = 523\nvalue = [[509, 14]\n[431, 92]\n[504, 19]\n[186, 337]\n[507, 16]\n[478, 45]]"] ;
6 -> 7 ;
8 [label="X[246] <= 0.401\nentropy = 0.58\nsamples = 223\nvalue = [[209, 14]\n[131, 92]\n[204, 19]\n[186, 37]\n[207, 16]\n[178, 45]]"] ;
7 -> 8 ;
9 [label="X[62] <= -2.29\nentropy = 0.61\nsamples = 120\nvalue = [[106, 14]\n[111, 9]\n[103, 17]\n[100, 20]\n[104, 16]\n[76, 44]]"] ;
8 -> 9 ;
10 [label="entropy = 0.0\nsamples = 15\nvalue = [[15, 0]\n[15, 0]\n[15, 0]\n[15, 0]\n[0, 15]\n[15, 0]]"] ;
9 -> 10 ;
11 [label="X[73] <= -1.038\nentropy = 0.565\nsamples = 105\nvalue = [[91, 14]\n[96, 9]\n[88, 17]\n[85, 20]\n[104, 1]\n[61, 44]]"] ;
9 -> 11 ;
12 [label="X[461] <= -0.894\nentropy = 0.293\nsamples = 47\nvalue = [[46, 1]\n[45, 2]\n[47, 0]\n[40, 7]\n[47, 0]\n[10, 37]]"] ;
11 -> 12 ;
13 [label="X[131] <= -0.716\nentropy = 0.471\nsamples = 16\nvalue = [[15, 1]\n[14, 2]\n[16, 0]\n[9, 7]\n[16, 0]\n[10, 6]]"] ;
12 -> 13 ;
14 [label="X[995] <= 0.174\nentropy = 0.345\nsamples = 10\nvalue = [[9, 1]\n[8, 2]\n[10, 0]\n[3, 7]\n[10, 0]\n[10, 0]]"] ;
13 -> 14 ;
15 [label="entropy = 0.0\nsamples = 7\nvalue = [[7, 0]\n[7, 0]\n[7, 0]\n[0, 7]\n[7, 0]\n[7, 0]]"] ;
14 -> 15 ;
16 [label="X[337] <= -1.891\nentropy = 0.306\nsamples = 3\nvalue = [[2, 1]\n[1, 2]\n[3, 0]\n[3, 0]\n[3, 0]\n[3, 0]]"] ;
14 -> 16 ;
17 [label="entropy = 0.0\nsamples = 1\nvalue = [[0, 1]\n[1, 0]\n[1, 0]\n[1, 0]\n[1, 0]\n[1, 0]]"] ;
16 -> 17 ;
18 [label="entropy = 0.0\nsamples = 2\nvalue = [[2, 0]\n[0, 2]\n[2, 0]\n[2, 0]\n[2, 0]\n[2, 0]]"] ;
16 -> 18 ;
19 [label="entropy = 0.0\nsamples = 6\nvalue = [[6, 0]\n[6, 0]\n[6, 0]\n[6, 0]\n[6, 0]\n[0, 6]]"] ;
13 -> 19 ;
20 [label="entropy = 0.0\nsamples = 31\nvalue = [[31, 0]\n[31, 0]\n[31, 0]\n[31, 0]\n[31, 0]\n[0, 31]]"] ;
12 -> 20 ;
21 [label="X[181] <= -1.07\nentropy = 0.599\nsamples = 58\nvalue = [[45, 13]\n[51, 7]\n[41, 17]\n[45, 13]\n[57, 1]\n[51, 7]]"] ;
11 -> 21 ;
22 [label="X[1013] <= -0.587\nentropy = 0.435\nsamples = 28\nvalue = [[28, 0]\n[24, 4]\n[12, 16]\n[27, 1]\n[28, 0]\n[21, 7]]"] ;
21 -> 22 ;
23 [label="X[40] <= -0.162\nentropy = 0.385\nsamples = 12\nvalue = [[12, 0]\n[8, 4]\n[12, 0]\n[11, 1]\n[12, 0]\n[5, 7]]"] ;
22 -> 23 ;
24 [label="X[23] <= -1.457\nentropy = 0.241\nsamples = 5\nvalue = [[5, 0]\n[1, 4]\n[5, 0]\n[4, 1]\n[5, 0]\n[5, 0]]"] ;
23 -> 24 ;
25 [label="entropy = 0.0\nsamples = 1\nvalue = [[1, 0]\n[1, 0]\n[1, 0]\n[0, 1]\n[1, 0]\n[1, 0]]"] ;
24 -> 25 ;
26 [label="entropy = 0.0\nsamples = 4\nvalue = [[4, 0]\n[0, 4]\n[4, 0]\n[4, 0]\n[4, 0]\n[4, 0]]"] ;
24 -> 26 ;
27 [label="entropy = 0.0\nsamples = 7\nvalue = [[7, 0]\n[7, 0]\n[7, 0]\n[7, 0]\n[7, 0]\n[0, 7]]"] ;
23 -> 27 ;
28 [label="entropy = 0.0\nsamples = 16\nvalue = [[16, 0]\n[16, 0]\n[0, 16]\n[16, 0]\n[16, 0]\n[16, 0]]"] ;
22 -> 28 ;
29 [label="X[274] <= -0.512\nentropy = 0.475\nsamples = 30\nvalue = [[17, 13]\n[27, 3]\n[29, 1]\n[18, 12]\n[29, 1]\n[30, 0]]"] ;
21 -> 29 ;
30 [label="X[222] <= -1.117\nentropy = 0.274\nsamples = 15\nvalue = [[3, 12]\n[13, 2]\n[15, 0]\n[14, 1]\n[15, 0]\n[15, 0]]"] ;
29 -> 30 ;
31 [label="X[569] <= -1.579\nentropy = 0.306\nsamples = 3\nvalue = [[3, 0]\n[1, 2]\n[3, 0]\n[2, 1]\n[3, 0]\n[3, 0]]"] ;
30 -> 31 ;
32 [label="entropy = 0.0\nsamples = 2\nvalue = [[2, 0]\n[0, 2]\n[2, 0]\n[2, 0]\n[2, 0]\n[2, 0]]"] ;
31 -> 32 ;
33 [label="entropy = 0.0\nsamples = 1\nvalue = [[1, 0]\n[1, 0]\n[1, 0]\n[0, 1]\n[1, 0]\n[1, 0]]"] ;
31 -> 33 ;
34 [label="entropy = 0.0\nsamples = 12\nvalue = [[0, 12]\n[12, 0]\n[12, 0]\n[12, 0]\n[12, 0]\n[12, 0]]"] ;
30 -> 34 ;
35 [label="X[253] <= 0.039\nentropy = 0.375\nsamples = 15\nvalue = [[14, 1]\n[14, 1]\n[14, 1]\n[4, 11]\n[14, 1]\n[15, 0]]"] ;
29 -> 35 ;
36 [label="entropy = 0.0\nsamples = 10\nvalue = [[10, 0]\n[10, 0]\n[10, 0]\n[0, 10]\n[10, 0]\n[10, 0]]"] ;
35 -> 36 ;
37 [label="X[288] <= 0.083\nentropy = 0.602\nsamples = 5\nvalue = [[4, 1]\n[4, 1]\n[4, 1]\n[4, 1]\n[4, 1]\n[5, 0]]"] ;
35 -> 37 ;
38 [label="X[929] <= -0.781\nentropy = 0.333\nsamples = 2\nvalue = [[2, 0]\n[1, 1]\n[2, 0]\n[1, 1]\n[2, 0]\n[2, 0]]"] ;
37 -> 38 ;
39 [label="entropy = 0.0\nsamples = 1\nvalue = [[1, 0]\n[0, 1]\n[1, 0]\n[1, 0]\n[1, 0]\n[1, 0]]"] ;
38 -> 39 ;
40 [label="entropy = 0.0\nsamples = 1\nvalue = [[1, 0]\n[1, 0]\n[1, 0]\n[0, 1]\n[1, 0]\n[1, 0]]"] ;
38 -> 40 ;
41 [label="X[829] <= -0.94\nentropy = 0.459\nsamples = 3\nvalue = [[2, 1]\n[3, 0]\n[2, 1]\n[3, 0]\n[2, 1]\n[3, 0]]"] ;
37 -> 41 ;
42 [label="X[63] <= -0.604\nentropy = 0.333\nsamples = 2\nvalue = [[2, 0]\n[2, 0]\n[1, 1]\n[2, 0]\n[1, 1]\n[2, 0]]"] ;
41 -> 42 ;
43 [label="entropy = 0.0\nsamples = 1\nvalue = [[1, 0]\n[1, 0]\n[1, 0]\n[1, 0]\n[0, 1]\n[1, 0]]"] ;
42 -> 43 ;
44 [label="entropy = 0.0\nsamples = 1\nvalue = [[1, 0]\n[1, 0]\n[0, 1]\n[1, 0]\n[1, 0]\n[1, 0]]"] ;
42 -> 44 ;
45 [label="entropy = 0.0\nsamples = 1\nvalue = [[0, 1]\n[1, 0]\n[1, 0]\n[1, 0]\n[1, 0]\n[1, 0]]"] ;
41 -> 45 ;
46 [label="X[39] <= 0.257\nentropy = 0.262\nsamples = 103\nvalue = [[103, 0]\n[20, 83]\n[101, 2]\n[86, 17]\n[103, 0]\n[102, 1]]"] ;
8 -> 46 ;
47 [label="X[318] <= 1.113\nentropy = 0.031\nsamples = 84\nvalue = [[84, 0]\n[1, 83]\n[83, 1]\n[84, 0]\n[84, 0]\n[84, 0]]"] ;
46 -> 47 ;
48 [label="entropy = 0.0\nsamples = 83\nvalue = [[83, 0]\n[0, 83]\n[83, 0]\n[83, 0]\n[83, 0]\n[83, 0]]"] ;
47 -> 48 ;
49 [label="entropy = 0.0\nsamples = 1\nvalue = [[1, 0]\n[1, 0]\n[0, 1]\n[1, 0]\n[1, 0]\n[1, 0]]"] ;
47 -> 49 ;
50 [label="X[68] <= 1.078\nentropy = 0.18\nsamples = 19\nvalue = [[19, 0]\n[19, 0]\n[18, 1]\n[2, 17]\n[19, 0]\n[18, 1]]"] ;
46 -> 50 ;
51 [label="X[471] <= -2.103\nentropy = 0.459\nsamples = 3\nvalue = [[3, 0]\n[3, 0]\n[2, 1]\n[2, 1]\n[3, 0]\n[2, 1]]"] ;
50 -> 51 ;
52 [label="entropy = 0.0\nsamples = 1\nvalue = [[1, 0]\n[1, 0]\n[0, 1]\n[1, 0]\n[1, 0]\n[1, 0]]"] ;
51 -> 52 ;
53 [label="X[818] <= -1.291\nentropy = 0.333\nsamples = 2\nvalue = [[2, 0]\n[2, 0]\n[2, 0]\n[1, 1]\n[2, 0]\n[1, 1]]"] ;
51 -> 53 ;
54 [label="entropy = 0.0\nsamples = 1\nvalue = [[1, 0]\n[1, 0]\n[1, 0]\n[0, 1]\n[1, 0]\n[1, 0]]"] ;
53 -> 54 ;
55 [label="entropy = 0.0\nsamples = 1\nvalue = [[1, 0]\n[1, 0]\n[1, 0]\n[1, 0]\n[1, 0]\n[0, 1]]"] ;
53 -> 55 ;
56 [label="entropy = 0.0\nsamples = 16\nvalue = [[16, 0]\n[16, 0]\n[16, 0]\n[0, 16]\n[16, 0]\n[16, 0]]"] ;
50 -> 56 ;
57 [label="entropy = 0.0\nsamples = 300\nvalue = [[300, 0]\n[300, 0]\n[300, 0]\n[0, 300]\n[300, 0]\n[300, 0]]"] ;
7 -> 57 ;
58 [label="X[78] <= -0.318\nentropy = 0.106\nsamples = 2355\nvalue = [[2343, 12]\n[2348, 7]\n[2342, 13]\n[2290, 65]\n[2341, 14]\n[111, 2244]]"] ;
6 -> 58 ;
59 [label="X[745] <= 0.003\nentropy = 0.074\nsamples = 2276\nvalue = [[2268, 8]\n[2270, 6]\n[2269, 7]\n[2243, 33]\n[2263, 13]\n[67, 2209]]"] ;
58 -> 59 ;
60 [label="X[11] <= -0.612\nentropy = 0.052\nsamples = 2238\nvalue = [[2235, 3]\n[2232, 6]\n[2234, 4]\n[2209, 29]\n[2236, 2]\n[44, 2194]]"] ;
59 -> 60 ;
61 [label="X[0] <= -1.339\nentropy = 0.028\nsamples = 2142\nvalue = [[2141, 1]\n[2138, 4]\n[2139, 3]\n[2130, 12]\n[2142, 0]\n[20, 2122]]"] ;
60 -> 61 ;
62 [label="X[922] <= -1.491\nentropy = 0.333\nsamples = 6\nvalue = [[6, 0]\n[3, 3]\n[6, 0]\n[3, 3]\n[6, 0]\n[6, 0]]"] ;
61 -> 62 ;
63 [label="entropy = 0.0\nsamples = 3\nvalue = [[3, 0]\n[0, 3]\n[3, 0]\n[3, 0]\n[3, 0]\n[3, 0]]"] ;
62 -> 63 ;
64 [label="entropy = 0.0\nsamples = 3\nvalue = [[3, 0]\n[3, 0]\n[3, 0]\n[0, 3]\n[3, 0]\n[3, 0]]"] ;
62 -> 64 ;
65 [label="X[27] <= 0.207\nentropy = 0.021\nsamples = 2136\nvalue = [[2135, 1]\n[2135, 1]\n[2133, 3]\n[2127, 9]\n[2136, 0]\n[14, 2122]]"] ;
61 -> 65 ;
66 [label="X[510] <= 0.894\nentropy = 0.015\nsamples = 2132\nvalue = [[2131, 1]\n[2132, 0]\n[2131, 1]\n[2124, 8]\n[2132, 0]\n[10, 2122]]"] ;
65 -> 66 ;
67 [label="X[594] <= -1.191\nentropy = 0.011\nsamples = 2129\nvalue = [[2129, 0]\n[2129, 0]\n[2129, 0]\n[2122, 7]\n[2129, 0]\n[7, 2122]]"] ;
66 -> 67 ;
68 [label="X[377] <= 0.558\nentropy = 0.306\nsamples = 3\nvalue = [[3, 0]\n[3, 0]\n[3, 0]\n[1, 2]\n[3, 0]\n[2, 1]]"] ;
67 -> 68 ;
69 [label="entropy = 0.0\nsamples = 2\nvalue = [[2, 0]\n[2, 0]\n[2, 0]\n[0, 2]\n[2, 0]\n[2, 0]]"] ;
68 -> 69 ;
70 [label="entropy = 0.0\nsamples = 1\nvalue = [[1, 0]\n[1, 0]\n[1, 0]\n[1, 0]\n[1, 0]\n[0, 1]]"] ;
68 -> 70 ;
71 [label="X[793] <= 0.221\nentropy = 0.008\nsamples = 2126\nvalue = [[2126, 0]\n[2126, 0]\n[2126, 0]\n[2121, 5]\n[2126, 0]\n[5, 2121]]"] ;
67 -> 71 ;
72 [label="X[56] <= 0.053\nentropy = 0.005\nsamples = 2119\nvalue = [[2119, 0]\n[2119, 0]\n[2119, 0]\n[2116, 3]\n[2119, 0]\n[3, 2116]]"] ;
71 -> 72 ;
73 [label="X[413] <= 1.069\nentropy = 0.002\nsamples = 2103\nvalue = [[2103, 0]\n[2103, 0]\n[2103, 0]\n[2102, 1]\n[2103, 0]\n[1, 2102]]"] ;
72 -> 73 ;
74 [label="entropy = 0.0\nsamples = 2102\nvalue = [[2102, 0]\n[2102, 0]\n[2102, 0]\n[2102, 0]\n[2102, 0]\n[0, 2102]]"] ;
73 -> 74 ;
75 [label="entropy = 0.0\nsamples = 1\nvalue = [[1, 0]\n[1, 0]\n[1, 0]\n[0, 1]\n[1, 0]\n[1, 0]]"] ;
73 -> 75 ;
76 [label="X[204] <= -0.281\nentropy = 0.181\nsamples = 16\nvalue = [[16, 0]\n[16, 0]\n[16, 0]\n[14, 2]\n[16, 0]\n[2, 14]]"] ;
72 -> 76 ;
77 [label="entropy = 0.0\nsamples = 14\nvalue = [[14, 0]\n[14, 0]\n[14, 0]\n[14, 0]\n[14, 0]\n[0, 14]]"] ;
76 -> 77 ;
78 [label="entropy = 0.0\nsamples = 2\nvalue = [[2, 0]\n[2, 0]\n[2, 0]\n[0, 2]\n[2, 0]\n[2, 0]]"] ;
76 -> 78 ;
79 [label="X[147] <= -1.024\nentropy = 0.288\nsamples = 7\nvalue = [[7, 0]\n[7, 0]\n[7, 0]\n[5, 2]\n[7, 0]\n[2, 5]]"] ;
71 -> 79 ;
80 [label="entropy = 0.0\nsamples = 5\nvalue = [[5, 0]\n[5, 0]\n[5, 0]\n[5, 0]\n[5, 0]\n[0, 5]]"] ;
79 -> 80 ;
81 [label="entropy = 0.0\nsamples = 2\nvalue = [[2, 0]\n[2, 0]\n[2, 0]\n[0, 2]\n[2, 0]\n[2, 0]]"] ;
79 -> 81 ;
82 [label="X[41] <= -1.195\nentropy = 0.459\nsamples = 3\nvalue = [[2, 1]\n[3, 0]\n[2, 1]\n[2, 1]\n[3, 0]\n[3, 0]]"] ;
66 -> 82 ;
83 [label="entropy = 0.0\nsamples = 1\nvalue = [[1, 0]\n[1, 0]\n[0, 1]\n[1, 0]\n[1, 0]\n[1, 0]]"] ;
82 -> 83 ;
84 [label="X[348] <= -0.209\nentropy = 0.333\nsamples = 2\nvalue = [[1, 1]\n[2, 0]\n[2, 0]\n[1, 1]\n[2, 0]\n[2, 0]]"] ;
82 -> 84 ;
85 [label="entropy = 0.0\nsamples = 1\nvalue = [[1, 0]\n[1, 0]\n[1, 0]\n[0, 1]\n[1, 0]\n[1, 0]]"] ;
84 -> 85 ;
86 [label="entropy = 0.0\nsamples = 1\nvalue = [[0, 1]\n[1, 0]\n[1, 0]\n[1, 0]\n[1, 0]\n[1, 0]]"] ;
84 -> 86 ;
87 [label="X[908] <= -0.002\nentropy = 0.437\nsamples = 4\nvalue = [[4, 0]\n[3, 1]\n[2, 2]\n[3, 1]\n[4, 0]\n[4, 0]]"] ;
65 -> 87 ;
88 [label="entropy = 0.0\nsamples = 2\nvalue = [[2, 0]\n[2, 0]\n[0, 2]\n[2, 0]\n[2, 0]\n[2, 0]]"] ;
87 -> 88 ;
89 [label="X[853] <= -1.045\nentropy = 0.333\nsamples = 2\nvalue = [[2, 0]\n[1, 1]\n[2, 0]\n[1, 1]\n[2, 0]\n[2, 0]]"] ;
87 -> 89 ;
90 [label="entropy = 0.0\nsamples = 1\nvalue = [[1, 0]\n[0, 1]\n[1, 0]\n[1, 0]\n[1, 0]\n[1, 0]]"] ;
89 -> 90 ;
91 [label="entropy = 0.0\nsamples = 1\nvalue = [[1, 0]\n[1, 0]\n[1, 0]\n[0, 1]\n[1, 0]\n[1, 0]]"] ;
89 -> 91 ;
92 [label="X[753] <= -0.169\nentropy = 0.334\nsamples = 96\nvalue = [[94, 2]\n[94, 2]\n[95, 1]\n[79, 17]\n[94, 2]\n[24, 72]]"] ;
60 -> 92 ;
93 [label="X[247] <= -0.356\nentropy = 0.481\nsamples = 26\nvalue = [[24, 2]\n[24, 2]\n[25, 1]\n[10, 16]\n[24, 2]\n[23, 3]]"] ;
92 -> 93 ;
94 [label="X[251] <= 0.051\nentropy = 0.108\nsamples = 17\nvalue = [[17, 0]\n[17, 0]\n[17, 0]\n[1, 16]\n[16, 1]\n[17, 0]]"] ;
93 -> 94 ;
95 [label="entropy = 0.0\nsamples = 16\nvalue = [[16, 0]\n[16, 0]\n[16, 0]\n[0, 16]\n[16, 0]\n[16, 0]]"] ;
94 -> 95 ;
96 [label="entropy = 0.0\nsamples = 1\nvalue = [[1, 0]\n[1, 0]\n[1, 0]\n[1, 0]\n[0, 1]\n[1, 0]]"] ;
94 -> 96 ;
97 [label="X[1004] <= -0.014\nentropy = 0.576\nsamples = 9\nvalue = [[7, 2]\n[7, 2]\n[8, 1]\n[9, 0]\n[8, 1]\n[6, 3]]"] ;
93 -> 97 ;
98 [label="entropy = 0.0\nsamples = 3\nvalue = [[3, 0]\n[3, 0]\n[3, 0]\n[3, 0]\n[3, 0]\n[0, 3]]"] ;
97 -> 98 ;
99 [label="X[399] <= -0.453\nentropy = 0.523\nsamples = 6\nvalue = [[4, 2]\n[4, 2]\n[5, 1]\n[6, 0]\n[5, 1]\n[6, 0]]"] ;
97 -> 99 ;
100 [label="entropy = 0.0\nsamples = 2\nvalue = [[0, 2]\n[2, 0]\n[2, 0]\n[2, 0]\n[2, 0]\n[2, 0]]"] ;
99 -> 100 ;
101 [label="X[517] <= -0.263\nentropy = 0.437\nsamples = 4\nvalue = [[4, 0]\n[2, 2]\n[3, 1]\n[4, 0]\n[3, 1]\n[4, 0]]"] ;
99 -> 101 ;
102 [label="entropy = 0.0\nsamples = 2\nvalue = [[2, 0]\n[0, 2]\n[2, 0]\n[2, 0]\n[2, 0]\n[2, 0]]"] ;
101 -> 102 ;
103 [label="X[913] <= -0.193\nentropy = 0.333\nsamples = 2\nvalue = [[2, 0]\n[2, 0]\n[1, 1]\n[2, 0]\n[1, 1]\n[2, 0]]"] ;
101 -> 103 ;
104 [label="entropy = 0.0\nsamples = 1\nvalue = [[1, 0]\n[1, 0]\n[1, 0]\n[1, 0]\n[0, 1]\n[1, 0]]"] ;
103 -> 104 ;
105 [label="entropy = 0.0\nsamples = 1\nvalue = [[1, 0]\n[1, 0]\n[0, 1]\n[1, 0]\n[1, 0]\n[1, 0]]"] ;
103 -> 105 ;
106 [label="X[387] <= 0.053\nentropy = 0.036\nsamples = 70\nvalue = [[70, 0]\n[70, 0]\n[70, 0]\n[69, 1]\n[70, 0]\n[1, 69]]"] ;
92 -> 106 ;
107 [label="entropy = 0.0\nsamples = 69\nvalue = [[69, 0]\n[69, 0]\n[69, 0]\n[69, 0]\n[69, 0]\n[0, 69]]"] ;
106 -> 107 ;
108 [label="entropy = 0.0\nsamples = 1\nvalue = [[1, 0]\n[1, 0]\n[1, 0]\n[0, 1]\n[1, 0]\n[1, 0]]"] ;
106 -> 108 ;
109 [label="X[1014] <= -0.199\nentropy = 0.547\nsamples = 38\nvalue = [[33, 5]\n[38, 0]\n[35, 3]\n[34, 4]\n[27, 11]\n[23, 15]]"] ;
59 -> 109 ;
110 [label="X[683] <= -0.039\nentropy = 0.332\nsamples = 20\nvalue = [[19, 1]\n[20, 0]\n[17, 3]\n[19, 1]\n[20, 0]\n[5, 15]]"] ;
109 -> 110 ;
111 [label="entropy = 0.0\nsamples = 15\nvalue = [[15, 0]\n[15, 0]\n[15, 0]\n[15, 0]\n[15, 0]\n[0, 15]]"] ;
110 -> 111 ;
112 [label="X[742] <= 0.832\nentropy = 0.402\nsamples = 5\nvalue = [[4, 1]\n[5, 0]\n[2, 3]\n[4, 1]\n[5, 0]\n[5, 0]]"] ;
110 -> 112 ;
113 [label="X[94] <= -1.077\nentropy = 0.333\nsamples = 2\nvalue = [[1, 1]\n[2, 0]\n[2, 0]\n[1, 1]\n[2, 0]\n[2, 0]]"] ;
112 -> 113 ;
114 [label="entropy = 0.0\nsamples = 1\nvalue = [[1, 0]\n[1, 0]\n[1, 0]\n[0, 1]\n[1, 0]\n[1, 0]]"] ;
113 -> 114 ;
115 [label="entropy = 0.0\nsamples = 1\nvalue = [[0, 1]\n[1, 0]\n[1, 0]\n[1, 0]\n[1, 0]\n[1, 0]]"] ;
113 -> 115 ;
116 [label="entropy = 0.0\nsamples = 3\nvalue = [[3, 0]\n[3, 0]\n[0, 3]\n[3, 0]\n[3, 0]\n[3, 0]]"] ;
112 -> 116 ;
117 [label="X[821] <= 0.028\nentropy = 0.396\nsamples = 18\nvalue = [[14, 4]\n[18, 0]\n[18, 0]\n[15, 3]\n[7, 11]\n[18, 0]]"] ;
109 -> 117 ;
118 [label="entropy = 0.0\nsamples = 11\nvalue = [[11, 0]\n[11, 0]\n[11, 0]\n[11, 0]\n[0, 11]\n[11, 0]]"] ;
117 -> 118 ;
119 [label="X[731] <= 0.043\nentropy = 0.328\nsamples = 7\nvalue = [[3, 4]\n[7, 0]\n[7, 0]\n[4, 3]\n[7, 0]\n[7, 0]]"] ;
117 -> 119 ;
120 [label="entropy = 0.0\nsamples = 4\nvalue = [[0, 4]\n[4, 0]\n[4, 0]\n[4, 0]\n[4, 0]\n[4, 0]]"] ;
119 -> 120 ;
121 [label="entropy = 0.0\nsamples = 3\nvalue = [[3, 0]\n[3, 0]\n[3, 0]\n[0, 3]\n[3, 0]\n[3, 0]]"] ;
119 -> 121 ;
122 [label="X[226] <= -0.223\nentropy = 0.473\nsamples = 79\nvalue = [[75, 4]\n[78, 1]\n[73, 6]\n[47, 32]\n[78, 1]\n[44, 35]]"] ;
58 -> 122 ;
123 [label="X[757] <= -0.41\nentropy = 0.3\nsamples = 43\nvalue = [[42, 1]\n[43, 0]\n[42, 1]\n[37, 6]\n[42, 1]\n[9, 34]]"] ;
122 -> 123 ;
124 [label="X[616] <= -0.82\nentropy = 0.062\nsamples = 35\nvalue = [[35, 0]\n[35, 0]\n[34, 1]\n[35, 0]\n[35, 0]\n[1, 34]]"] ;
123 -> 124 ;
125 [label="entropy = 0.0\nsamples = 1\nvalue = [[1, 0]\n[1, 0]\n[0, 1]\n[1, 0]\n[1, 0]\n[1, 0]]"] ;
124 -> 125 ;
126 [label="entropy = 0.0\nsamples = 34\nvalue = [[34, 0]\n[34, 0]\n[34, 0]\n[34, 0]\n[34, 0]\n[0, 34]]"] ;
124 -> 126 ;
127 [label="X[53] <= 0.461\nentropy = 0.316\nsamples = 8\nvalue = [[7, 1]\n[8, 0]\n[8, 0]\n[2, 6]\n[7, 1]\n[8, 0]]"] ;
123 -> 127 ;
128 [label="entropy = 0.0\nsamples = 6\nvalue = [[6, 0]\n[6, 0]\n[6, 0]\n[0, 6]\n[6, 0]\n[6, 0]]"] ;
127 -> 128 ;
129 [label="X[995] <= 0.378\nentropy = 0.333\nsamples = 2\nvalue = [[1, 1]\n[2, 0]\n[2, 0]\n[2, 0]\n[1, 1]\n[2, 0]]"] ;
127 -> 129 ;
130 [label="entropy = 0.0\nsamples = 1\nvalue = [[1, 0]\n[1, 0]\n[1, 0]\n[1, 0]\n[0, 1]\n[1, 0]]"] ;
129 -> 130 ;
131 [label="entropy = 0.0\nsamples = 1\nvalue = [[0, 1]\n[1, 0]\n[1, 0]\n[1, 0]\n[1, 0]\n[1, 0]]"] ;
129 -> 131 ;
132 [label="X[300] <= -0.627\nentropy = 0.369\nsamples = 36\nvalue = [[33, 3]\n[35, 1]\n[31, 5]\n[10, 26]\n[36, 0]\n[35, 1]]"] ;
122 -> 132 ;
133 [label="entropy = 0.0\nsamples = 4\nvalue = [[4, 0]\n[4, 0]\n[0, 4]\n[4, 0]\n[4, 0]\n[4, 0]]"] ;
132 -> 133 ;
134 [label="X[407] <= -0.724\nentropy = 0.291\nsamples = 32\nvalue = [[29, 3]\n[31, 1]\n[31, 1]\n[6, 26]\n[32, 0]\n[31, 1]]"] ;
132 -> 134 ;
135 [label="X[334] <= -2.014\nentropy = 0.27\nsamples = 4\nvalue = [[1, 3]\n[4, 0]\n[4, 0]\n[3, 1]\n[4, 0]\n[4, 0]]"] ;
134 -> 135 ;
136 [label="entropy = 0.0\nsamples = 1\nvalue = [[1, 0]\n[1, 0]\n[1, 0]\n[0, 1]\n[1, 0]\n[1, 0]]"] ;
135 -> 136 ;
137 [label="entropy = 0.0\nsamples = 3\nvalue = [[0, 3]\n[3, 0]\n[3, 0]\n[3, 0]\n[3, 0]\n[3, 0]]"] ;
135 -> 137 ;
138 [label="X[1007] <= 1.307\nentropy = 0.193\nsamples = 28\nvalue = [[28, 0]\n[27, 1]\n[27, 1]\n[3, 25]\n[28, 0]\n[27, 1]]"] ;
134 -> 138 ;
139 [label="X[129] <= 1.081\nentropy = 0.078\nsamples = 26\nvalue = [[26, 0]\n[26, 0]\n[25, 1]\n[1, 25]\n[26, 0]\n[26, 0]]"] ;
138 -> 139 ;
140 [label="entropy = 0.0\nsamples = 25\nvalue = [[25, 0]\n[25, 0]\n[25, 0]\n[0, 25]\n[25, 0]\n[25, 0]]"] ;
139 -> 140 ;
141 [label="entropy = 0.0\nsamples = 1\nvalue = [[1, 0]\n[1, 0]\n[0, 1]\n[1, 0]\n[1, 0]\n[1, 0]]"] ;
139 -> 141 ;
142 [label="X[798] <= -1.509\nentropy = 0.333\nsamples = 2\nvalue = [[2, 0]\n[1, 1]\n[2, 0]\n[2, 0]\n[2, 0]\n[1, 1]]"] ;
138 -> 142 ;
143 [label="entropy = 0.0\nsamples = 1\nvalue = [[1, 0]\n[0, 1]\n[1, 0]\n[1, 0]\n[1, 0]\n[1, 0]]"] ;
142 -> 143 ;
144 [label="entropy = 0.0\nsamples = 1\nvalue = [[1, 0]\n[1, 0]\n[1, 0]\n[1, 0]\n[1, 0]\n[0, 1]]"] ;
142 -> 144 ;
145 [label="X[0] <= -1.286\nentropy = 0.418\nsamples = 3617\nvalue = [[3492, 125]\n[3555, 62]\n[3476, 141]\n[1166, 2451]\n[3315, 302]\n[3081, 536]]"] ;
5 -> 145 ;
146 [label="X[0] <= -1.304\nentropy = 0.237\nsamples = 398\nvalue = [[398, 0]\n[398, 0]\n[393, 5]\n[332, 66]\n[398, 0]\n[71, 327]]"] ;
145 -> 146 ;
147 [label="X[1023] <= 0.27\nentropy = 0.247\nsamples = 77\nvalue = [[77, 0]\n[77, 0]\n[72, 5]\n[13, 64]\n[77, 0]\n[69, 8]]"] ;
146 -> 147 ;
148 [label="X[615] <= -2.182\nentropy = 0.065\nsamples = 66\nvalue = [[66, 0]\n[66, 0]\n[64, 2]\n[2, 64]\n[66, 0]\n[66, 0]]"] ;
147 -> 148 ;
149 [label="X[333] <= -0.191\nentropy = 0.306\nsamples = 3\nvalue = [[3, 0]\n[3, 0]\n[1, 2]\n[2, 1]\n[3, 0]\n[3, 0]]"] ;
148 -> 149 ;
150 [label="entropy = 0.0\nsamples = 2\nvalue = [[2, 0]\n[2, 0]\n[0, 2]\n[2, 0]\n[2, 0]\n[2, 0]]"] ;
149 -> 150 ;
151 [label="entropy = 0.0\nsamples = 1\nvalue = [[1, 0]\n[1, 0]\n[1, 0]\n[0, 1]\n[1, 0]\n[1, 0]]"] ;
149 -> 151 ;
152 [label="entropy = 0.0\nsamples = 63\nvalue = [[63, 0]\n[63, 0]\n[63, 0]\n[0, 63]\n[63, 0]\n[63, 0]]"] ;
148 -> 152 ;
153 [label="X[587] <= -0.371\nentropy = 0.282\nsamples = 11\nvalue = [[11, 0]\n[11, 0]\n[8, 3]\n[11, 0]\n[11, 0]\n[3, 8]]"] ;
147 -> 153 ;
154 [label="entropy = 0.0\nsamples = 3\nvalue = [[3, 0]\n[3, 0]\n[0, 3]\n[3, 0]\n[3, 0]\n[3, 0]]"] ;
153 -> 154 ;
155 [label="entropy = 0.0\nsamples = 8\nvalue = [[8, 0]\n[8, 0]\n[8, 0]\n[8, 0]\n[8, 0]\n[0, 8]]"] ;
153 -> 155 ;
156 [label="X[2] <= -1.016\nentropy = 0.018\nsamples = 321\nvalue = [[321, 0]\n[321, 0]\n[321, 0]\n[319, 2]\n[321, 0]\n[2, 319]]"] ;
146 -> 156 ;
157 [label="entropy = 0.0\nsamples = 2\nvalue = [[2, 0]\n[2, 0]\n[2, 0]\n[0, 2]\n[2, 0]\n[2, 0]]"] ;
156 -> 157 ;
158 [label="entropy = 0.0\nsamples = 319\nvalue = [[319, 0]\n[319, 0]\n[319, 0]\n[319, 0]\n[319, 0]\n[0, 319]]"] ;
156 -> 158 ;
159 [label="X[866] <= -0.331\nentropy = 0.375\nsamples = 3219\nvalue = [[3094, 125]\n[3157, 62]\n[3083, 136]\n[834, 2385]\n[2917, 302]\n[3010, 209]]"] ;
145 -> 159 ;
160 [label="X[4] <= -0.207\nentropy = 0.206\nsamples = 1872\nvalue = [[1853, 19]\n[1841, 31]\n[1824, 48]\n[202, 1670]\n[1823, 49]\n[1817, 55]]"] ;
159 -> 160 ;
161 [label="X[2] <= -0.614\nentropy = 0.12\nsamples = 1696\nvalue = [[1683, 13]\n[1679, 17]\n[1662, 34]\n[91, 1605]\n[1691, 5]\n[1674, 22]]"] ;
160 -> 161 ;
162 [label="X[1020] <= -0.036\nentropy = 0.181\nsamples = 985\nvalue = [[972, 13]\n[968, 17]\n[951, 34]\n[91, 894]\n[980, 5]\n[963, 22]]"] ;
161 -> 162 ;
163 [label="X[1023] <= -0.364\nentropy = 0.141\nsamples = 940\nvalue = [[931, 9]\n[935, 5]\n[913, 27]\n[63, 877]\n[936, 4]\n[922, 18]]"] ;
162 -> 163 ;
164 [label="X[4] <= -1.027\nentropy = 0.255\nsamples = 408\nvalue = [[399, 9]\n[403, 5]\n[382, 26]\n[61, 347]\n[404, 4]\n[391, 17]]"] ;
163 -> 164 ;
165 [label="X[970] <= -0.515\nentropy = 0.165\nsamples = 372\nvalue = [[371, 1]\n[369, 3]\n[363, 9]\n[31, 341]\n[368, 4]\n[358, 14]]"] ;
164 -> 165 ;
166 [label="X[810] <= -2.088\nentropy = 0.108\nsamples = 358\nvalue = [[357, 1]\n[355, 3]\n[351, 7]\n[17, 341]\n[354, 4]\n[356, 2]]"] ;
165 -> 166 ;
167 [label="X[837] <= -1.442\nentropy = 0.012\nsamples = 258\nvalue = [[258, 0]\n[258, 0]\n[257, 1]\n[1, 257]\n[258, 0]\n[258, 0]]"] ;
166 -> 167 ;
168 [label="entropy = 0.0\nsamples = 257\nvalue = [[257, 0]\n[257, 0]\n[257, 0]\n[0, 257]\n[257, 0]\n[257, 0]]"] ;
167 -> 168 ;
169 [label="entropy = 0.0\nsamples = 1\nvalue = [[1, 0]\n[1, 0]\n[0, 1]\n[1, 0]\n[1, 0]\n[1, 0]]"] ;
167 -> 169 ;
170 [label="X[661] <= -0.478\nentropy = 0.27\nsamples = 100\nvalue = [[99, 1]\n[97, 3]\n[94, 6]\n[16, 84]\n[96, 4]\n[98, 2]]"] ;
166 -> 170 ;
171 [label="X[0] <= -0.203\nentropy = 0.584\nsamples = 26\nvalue = [[25, 1]\n[23, 3]\n[20, 6]\n[16, 10]\n[22, 4]\n[24, 2]]"] ;
170 -> 171 ;
172 [label="X[809] <= -1.528\nentropy = 0.52\nsamples = 22\nvalue = [[21, 1]\n[19, 3]\n[16, 6]\n[12, 10]\n[22, 0]\n[20, 2]]"] ;
171 -> 172 ;
173 [label="X[227] <= -0.039\nentropy = 0.341\nsamples = 7\nvalue = [[6, 1]\n[6, 1]\n[2, 5]\n[7, 0]\n[7, 0]\n[7, 0]]"] ;
172 -> 173 ;
174 [label="X[354] <= -0.656\nentropy = 0.333\nsamples = 2\nvalue = [[1, 1]\n[1, 1]\n[2, 0]\n[2, 0]\n[2, 0]\n[2, 0]]"] ;
173 -> 174 ;
175 [label="entropy = 0.0\nsamples = 1\nvalue = [[1, 0]\n[0, 1]\n[1, 0]\n[1, 0]\n[1, 0]\n[1, 0]]"] ;
174 -> 175 ;
176 [label="entropy = 0.0\nsamples = 1\nvalue = [[0, 1]\n[1, 0]\n[1, 0]\n[1, 0]\n[1, 0]\n[1, 0]]"] ;
174 -> 176 ;
177 [label="entropy = 0.0\nsamples = 5\nvalue = [[5, 0]\n[5, 0]\n[0, 5]\n[5, 0]\n[5, 0]\n[5, 0]]"] ;
173 -> 177 ;
178 [label="X[652] <= -0.44\nentropy = 0.401\nsamples = 15\nvalue = [[15, 0]\n[13, 2]\n[14, 1]\n[5, 10]\n[15, 0]\n[13, 2]]"] ;
172 -> 178 ;
179 [label="entropy = 0.0\nsamples = 9\nvalue = [[9, 0]\n[9, 0]\n[9, 0]\n[0, 9]\n[9, 0]\n[9, 0]]"] ;
178 -> 179 ;
180 [label="X[183] <= -0.122\nentropy = 0.523\nsamples = 6\nvalue = [[6, 0]\n[4, 2]\n[5, 1]\n[5, 1]\n[6, 0]\n[4, 2]]"] ;
178 -> 180 ;
181 [label="entropy = 0.0\nsamples = 2\nvalue = [[2, 0]\n[0, 2]\n[2, 0]\n[2, 0]\n[2, 0]\n[2, 0]]"] ;
180 -> 181 ;
182 [label="X[405] <= -0.441\nentropy = 0.437\nsamples = 4\nvalue = [[4, 0]\n[4, 0]\n[3, 1]\n[3, 1]\n[4, 0]\n[2, 2]]"] ;
180 -> 182 ;
183 [label="X[811] <= -0.556\nentropy = 0.333\nsamples = 2\nvalue = [[2, 0]\n[2, 0]\n[1, 1]\n[1, 1]\n[2, 0]\n[2, 0]]"] ;
182 -> 183 ;
184 [label="entropy = 0.0\nsamples = 1\nvalue = [[1, 0]\n[1, 0]\n[0, 1]\n[1, 0]\n[1, 0]\n[1, 0]]"] ;
183 -> 184 ;
185 [label="entropy = 0.0\nsamples = 1\nvalue = [[1, 0]\n[1, 0]\n[1, 0]\n[0, 1]\n[1, 0]\n[1, 0]]"] ;
183 -> 185 ;
186 [label="entropy = 0.0\nsamples = 2\nvalue = [[2, 0]\n[2, 0]\n[2, 0]\n[2, 0]\n[2, 0]\n[0, 2]]"] ;
182 -> 186 ;
187 [label="entropy = 0.0\nsamples = 4\nvalue = [[4, 0]\n[4, 0]\n[4, 0]\n[4, 0]\n[0, 4]\n[4, 0]]"] ;
171 -> 187 ;
188 [label="entropy = 0.0\nsamples = 74\nvalue = [[74, 0]\n[74, 0]\n[74, 0]\n[0, 74]\n[74, 0]\n[74, 0]]"] ;
170 -> 188 ;
189 [label="X[240] <= -0.159\nentropy = 0.197\nsamples = 14\nvalue = [[14, 0]\n[14, 0]\n[12, 2]\n[14, 0]\n[14, 0]\n[2, 12]]"] ;
165 -> 189 ;
190 [label="entropy = 0.0\nsamples = 12\nvalue = [[12, 0]\n[12, 0]\n[12, 0]\n[12, 0]\n[12, 0]\n[0, 12]]"] ;
189 -> 190 ;
191 [label="entropy = 0.0\nsamples = 2\nvalue = [[2, 0]\n[2, 0]\n[0, 2]\n[2, 0]\n[2, 0]\n[2, 0]]"] ;
189 -> 191 ;
192 [label="X[768] <= -1.143\nentropy = 0.523\nsamples = 36\nvalue = [[28, 8]\n[34, 2]\n[19, 17]\n[30, 6]\n[36, 0]\n[33, 3]]"] ;
164 -> 192 ;
193 [label="X[322] <= 0.146\nentropy = 0.474\nsamples = 16\nvalue = [[8, 8]\n[15, 1]\n[16, 0]\n[12, 4]\n[16, 0]\n[13, 3]]"] ;
192 -> 193 ;
194 [label="X[215] <= -2.075\nentropy = 0.37\nsamples = 6\nvalue = [[5, 1]\n[5, 1]\n[6, 0]\n[2, 4]\n[6, 0]\n[6, 0]]"] ;
193 -> 194 ;
195 [label="X[123] <= -0.096\nentropy = 0.333\nsamples = 2\nvalue = [[1, 1]\n[1, 1]\n[2, 0]\n[2, 0]\n[2, 0]\n[2, 0]]"] ;
194 -> 195 ;
196 [label="entropy = 0.0\nsamples = 1\nvalue = [[0, 1]\n[1, 0]\n[1, 0]\n[1, 0]\n[1, 0]\n[1, 0]]"] ;
195 -> 196 ;
197 [label="entropy = 0.0\nsamples = 1\nvalue = [[1, 0]\n[0, 1]\n[1, 0]\n[1, 0]\n[1, 0]\n[1, 0]]"] ;
195 -> 197 ;
198 [label="entropy = 0.0\nsamples = 4\nvalue = [[4, 0]\n[4, 0]\n[4, 0]\n[0, 4]\n[4, 0]\n[4, 0]]"] ;
194 -> 198 ;
199 [label="X[591] <= -2.867\nentropy = 0.294\nsamples = 10\nvalue = [[3, 7]\n[10, 0]\n[10, 0]\n[10, 0]\n[10, 0]\n[7, 3]]"] ;
193 -> 199 ;
200 [label="entropy = 0.0\nsamples = 6\nvalue = [[0, 6]\n[6, 0]\n[6, 0]\n[6, 0]\n[6, 0]\n[6, 0]]"] ;
199 -> 200 ;
201 [label="X[366] <= 0.7\nentropy = 0.27\nsamples = 4\nvalue = [[3, 1]\n[4, 0]\n[4, 0]\n[4, 0]\n[4, 0]\n[1, 3]]"] ;
199 -> 201 ;
202 [label="entropy = 0.0\nsamples = 1\nvalue = [[0, 1]\n[1, 0]\n[1, 0]\n[1, 0]\n[1, 0]\n[1, 0]]"] ;
201 -> 202 ;
203 [label="entropy = 0.0\nsamples = 3\nvalue = [[3, 0]\n[3, 0]\n[3, 0]\n[3, 0]\n[3, 0]\n[0, 3]]"] ;
201 -> 203 ;
204 [label="X[552] <= -0.495\nentropy = 0.228\nsamples = 20\nvalue = [[20, 0]\n[19, 1]\n[3, 17]\n[18, 2]\n[20, 0]\n[20, 0]]"] ;
192 -> 204 ;
205 [label="entropy = 0.0\nsamples = 17\nvalue = [[17, 0]\n[17, 0]\n[0, 17]\n[17, 0]\n[17, 0]\n[17, 0]]"] ;
204 -> 205 ;
206 [label="X[465] <= -0.259\nentropy = 0.306\nsamples = 3\nvalue = [[3, 0]\n[2, 1]\n[3, 0]\n[1, 2]\n[3, 0]\n[3, 0]]"] ;
204 -> 206 ;
207 [label="entropy = 0.0\nsamples = 2\nvalue = [[2, 0]\n[2, 0]\n[2, 0]\n[0, 2]\n[2, 0]\n[2, 0]]"] ;
206 -> 207 ;
208 [label="entropy = 0.0\nsamples = 1\nvalue = [[1, 0]\n[0, 1]\n[1, 0]\n[1, 0]\n[1, 0]\n[1, 0]]"] ;
206 -> 208 ;
209 [label="X[898] <= 0.832\nentropy = 0.013\nsamples = 532\nvalue = [[532, 0]\n[532, 0]\n[531, 1]\n[2, 530]\n[532, 0]\n[531, 1]]"] ;
163 -> 209 ;
210 [label="X[863] <= -0.262\nentropy = 0.007\nsamples = 531\nvalue = [[531, 0]\n[531, 0]\n[530, 1]\n[1, 530]\n[531, 0]\n[531, 0]]"] ;
209 -> 210 ;
211 [label="entropy = 0.0\nsamples = 530\nvalue = [[530, 0]\n[530, 0]\n[530, 0]\n[0, 530]\n[530, 0]\n[530, 0]]"] ;
210 -> 211 ;
212 [label="entropy = 0.0\nsamples = 1\nvalue = [[1, 0]\n[1, 0]\n[0, 1]\n[1, 0]\n[1, 0]\n[1, 0]]"] ;
210 -> 212 ;
213 [label="entropy = 0.0\nsamples = 1\nvalue = [[1, 0]\n[1, 0]\n[1, 0]\n[1, 0]\n[1, 0]\n[0, 1]]"] ;
209 -> 213 ;
214 [label="X[248] <= -0.034\nentropy = 0.573\nsamples = 45\nvalue = [[41, 4]\n[33, 12]\n[38, 7]\n[28, 17]\n[44, 1]\n[41, 4]]"] ;
162 -> 214 ;
215 [label="X[311] <= -0.329\nentropy = 0.456\nsamples = 20\nvalue = [[18, 2]\n[8, 12]\n[20, 0]\n[16, 4]\n[19, 1]\n[19, 1]]"] ;
214 -> 215 ;
216 [label="X[19] <= -0.415\nentropy = 0.483\nsamples = 8\nvalue = [[6, 2]\n[7, 1]\n[8, 0]\n[4, 4]\n[8, 0]\n[7, 1]]"] ;
215 -> 216 ;
217 [label="X[1] <= -0.636\nentropy = 0.241\nsamples = 5\nvalue = [[5, 0]\n[4, 1]\n[5, 0]\n[1, 4]\n[5, 0]\n[5, 0]]"] ;
216 -> 217 ;
218 [label="entropy = 0.0\nsamples = 4\nvalue = [[4, 0]\n[4, 0]\n[4, 0]\n[0, 4]\n[4, 0]\n[4, 0]]"] ;
217 -> 218 ;
219 [label="entropy = 0.0\nsamples = 1\nvalue = [[1, 0]\n[0, 1]\n[1, 0]\n[1, 0]\n[1, 0]\n[1, 0]]"] ;
217 -> 219 ;
220 [label="X[394] <= -1.733\nentropy = 0.306\nsamples = 3\nvalue = [[1, 2]\n[3, 0]\n[3, 0]\n[3, 0]\n[3, 0]\n[2, 1]]"] ;
216 -> 220 ;
221 [label="entropy = 0.0\nsamples = 1\nvalue = [[1, 0]\n[1, 0]\n[1, 0]\n[1, 0]\n[1, 0]\n[0, 1]]"] ;
220 -> 221 ;
222 [label="entropy = 0.0\nsamples = 2\nvalue = [[0, 2]\n[2, 0]\n[2, 0]\n[2, 0]\n[2, 0]\n[2, 0]]"] ;
220 -> 222 ;
223 [label="X[416] <= 0.297\nentropy = 0.138\nsamples = 12\nvalue = [[12, 0]\n[1, 11]\n[12, 0]\n[12, 0]\n[11, 1]\n[12, 0]]"] ;
215 -> 223 ;
224 [label="entropy = 0.0\nsamples = 11\nvalue = [[11, 0]\n[0, 11]\n[11, 0]\n[11, 0]\n[11, 0]\n[11, 0]]"] ;
223 -> 224 ;
225 [label="entropy = 0.0\nsamples = 1\nvalue = [[1, 0]\n[1, 0]\n[1, 0]\n[1, 0]\n[0, 1]\n[1, 0]]"] ;
223 -> 225 ;
226 [label="X[196] <= 0.034\nentropy = 0.464\nsamples = 25\nvalue = [[23, 2]\n[25, 0]\n[18, 7]\n[12, 13]\n[25, 0]\n[22, 3]]"] ;
214 -> 226 ;
227 [label="entropy = 0.0\nsamples = 7\nvalue = [[7, 0]\n[7, 0]\n[0, 7]\n[7, 0]\n[7, 0]\n[7, 0]]"] ;
226 -> 227 ;
228 [label="X[179] <= 0.287\nentropy = 0.334\nsamples = 18\nvalue = [[16, 2]\n[18, 0]\n[18, 0]\n[5, 13]\n[18, 0]\n[15, 3]]"] ;
226 -> 228 ;
229 [label="entropy = 0.0\nsamples = 12\nvalue = [[12, 0]\n[12, 0]\n[12, 0]\n[0, 12]\n[12, 0]\n[12, 0]]"] ;
228 -> 229 ;
230 [label="X[107] <= 0.306\nentropy = 0.428\nsamples = 6\nvalue = [[4, 2]\n[6, 0]\n[6, 0]\n[5, 1]\n[6, 0]\n[3, 3]]"] ;
228 -> 230 ;
231 [label="X[570] <= 0.043\nentropy = 0.306\nsamples = 3\nvalue = [[1, 2]\n[3, 0]\n[3, 0]\n[2, 1]\n[3, 0]\n[3, 0]]"] ;
230 -> 231 ;
232 [label="entropy = 0.0\nsamples = 2\nvalue = [[0, 2]\n[2, 0]\n[2, 0]\n[2, 0]\n[2, 0]\n[2, 0]]"] ;
231 -> 232 ;
233 [label="entropy = 0.0\nsamples = 1\nvalue = [[1, 0]\n[1, 0]\n[1, 0]\n[0, 1]\n[1, 0]\n[1, 0]]"] ;
231 -> 233 ;
234 [label="entropy = 0.0\nsamples = 3\nvalue = [[3, 0]\n[3, 0]\n[3, 0]\n[3, 0]\n[3, 0]\n[0, 3]]"] ;
230 -> 234 ;
235 [label="entropy = 0.0\nsamples = 711\nvalue = [[711, 0]\n[711, 0]\n[711, 0]\n[0, 711]\n[711, 0]\n[711, 0]]"] ;
161 -> 235 ;
236 [label="X[619] <= 0.147\nentropy = 0.579\nsamples = 176\nvalue = [[170, 6]\n[162, 14]\n[162, 14]\n[111, 65]\n[132, 44]\n[143, 33]]"] ;
160 -> 236 ;
237 [label="X[88] <= -0.367\nentropy = 0.603\nsamples = 140\nvalue = [[134, 6]\n[126, 14]\n[126, 14]\n[111, 29]\n[96, 44]\n[107, 33]]"] ;
236 -> 237 ;
238 [label="X[993] <= -0.894\nentropy = 0.433\nsamples = 62\nvalue = [[58, 4]\n[60, 2]\n[61, 1]\n[53, 9]\n[21, 41]\n[57, 5]]"] ;
237 -> 238 ;
239 [label="X[5] <= 0.076\nentropy = 0.582\nsamples = 19\nvalue = [[16, 3]\n[17, 2]\n[18, 1]\n[12, 7]\n[18, 1]\n[14, 5]]"] ;
238 -> 239 ;
240 [label="X[679] <= -1.951\nentropy = 0.181\nsamples = 8\nvalue = [[7, 1]\n[8, 0]\n[8, 0]\n[1, 7]\n[8, 0]\n[8, 0]]"] ;
239 -> 240 ;
241 [label="entropy = 0.0\nsamples = 7\nvalue = [[7, 0]\n[7, 0]\n[7, 0]\n[0, 7]\n[7, 0]\n[7, 0]]"] ;
240 -> 241 ;
242 [label="entropy = 0.0\nsamples = 1\nvalue = [[0, 1]\n[1, 0]\n[1, 0]\n[1, 0]\n[1, 0]\n[1, 0]]"] ;
240 -> 242 ;
243 [label="X[6] <= 0.533\nentropy = 0.54\nsamples = 11\nvalue = [[9, 2]\n[9, 2]\n[10, 1]\n[11, 0]\n[10, 1]\n[6, 5]]"] ;
239 -> 243 ;
244 [label="X[48] <= -0.608\nentropy = 0.288\nsamples = 7\nvalue = [[7, 0]\n[5, 2]\n[7, 0]\n[7, 0]\n[7, 0]\n[2, 5]]"] ;
243 -> 244 ;
245 [label="entropy = 0.0\nsamples = 5\nvalue = [[5, 0]\n[5, 0]\n[5, 0]\n[5, 0]\n[5, 0]\n[0, 5]]"] ;
244 -> 245 ;
246 [label="entropy = 0.0\nsamples = 2\nvalue = [[2, 0]\n[0, 2]\n[2, 0]\n[2, 0]\n[2, 0]\n[2, 0]]"] ;
244 -> 246 ;
247 [label="X[704] <= -2.185\nentropy = 0.437\nsamples = 4\nvalue = [[2, 2]\n[4, 0]\n[3, 1]\n[4, 0]\n[3, 1]\n[4, 0]]"] ;
243 -> 247 ;
248 [label="entropy = 0.0\nsamples = 2\nvalue = [[0, 2]\n[2, 0]\n[2, 0]\n[2, 0]\n[2, 0]\n[2, 0]]"] ;
247 -> 248 ;
249 [label="X[126] <= -2.148\nentropy = 0.333\nsamples = 2\nvalue = [[2, 0]\n[2, 0]\n[1, 1]\n[2, 0]\n[1, 1]\n[2, 0]]"] ;
247 -> 249 ;
250 [label="entropy = 0.0\nsamples = 1\nvalue = [[1, 0]\n[1, 0]\n[0, 1]\n[1, 0]\n[1, 0]\n[1, 0]]"] ;
249 -> 250 ;
251 [label="entropy = 0.0\nsamples = 1\nvalue = [[1, 0]\n[1, 0]\n[1, 0]\n[1, 0]\n[0, 1]\n[1, 0]]"] ;
249 -> 251 ;
252 [label="X[2] <= -0.237\nentropy = 0.133\nsamples = 43\nvalue = [[42, 1]\n[43, 0]\n[43, 0]\n[41, 2]\n[3, 40]\n[43, 0]]"] ;
238 -> 252 ;
253 [label="X[512] <= -2.425\nentropy = 0.444\nsamples = 5\nvalue = [[4, 1]\n[5, 0]\n[5, 0]\n[3, 2]\n[3, 2]\n[5, 0]]"] ;
252 -> 253 ;
254 [label="entropy = 0.0\nsamples = 2\nvalue = [[2, 0]\n[2, 0]\n[2, 0]\n[2, 0]\n[0, 2]\n[2, 0]]"] ;
253 -> 254 ;
255 [label="X[1008] <= 0.909\nentropy = 0.306\nsamples = 3\nvalue = [[2, 1]\n[3, 0]\n[3, 0]\n[1, 2]\n[3, 0]\n[3, 0]]"] ;
253 -> 255 ;
256 [label="entropy = 0.0\nsamples = 1\nvalue = [[0, 1]\n[1, 0]\n[1, 0]\n[1, 0]\n[1, 0]\n[1, 0]]"] ;
255 -> 256 ;
257 [label="entropy = 0.0\nsamples = 2\nvalue = [[2, 0]\n[2, 0]\n[2, 0]\n[0, 2]\n[2, 0]\n[2, 0]]"] ;
255 -> 257 ;
258 [label="entropy = 0.0\nsamples = 38\nvalue = [[38, 0]\n[38, 0]\n[38, 0]\n[38, 0]\n[0, 38]\n[38, 0]]"] ;
252 -> 258 ;
259 [label="X[1022] <= -1.554\nentropy = 0.573\nsamples = 78\nvalue = [[76, 2]\n[66, 12]\n[65, 13]\n[58, 20]\n[75, 3]\n[50, 28]]"] ;
237 -> 259 ;
260 [label="X[18] <= -1.124\nentropy = 0.083\nsamples = 24\nvalue = [[24, 0]\n[24, 0]\n[23, 1]\n[24, 0]\n[24, 0]\n[1, 23]]"] ;
259 -> 260 ;
261 [label="entropy = 0.0\nsamples = 1\nvalue = [[1, 0]\n[1, 0]\n[0, 1]\n[1, 0]\n[1, 0]\n[1, 0]]"] ;
260 -> 261 ;
262 [label="entropy = 0.0\nsamples = 23\nvalue = [[23, 0]\n[23, 0]\n[23, 0]\n[23, 0]\n[23, 0]\n[0, 23]]"] ;
260 -> 262 ;
263 [label="X[37] <= 0.305\nentropy = 0.577\nsamples = 54\nvalue = [[52, 2]\n[42, 12]\n[42, 12]\n[34, 20]\n[51, 3]\n[49, 5]]"] ;
259 -> 263 ;
264 [label="X[591] <= -0.833\nentropy = 0.512\nsamples = 32\nvalue = [[30, 2]\n[30, 2]\n[30, 2]\n[14, 18]\n[29, 3]\n[27, 5]]"] ;
263 -> 264 ;
265 [label="X[761] <= -1.972\nentropy = 0.203\nsamples = 16\nvalue = [[15, 1]\n[16, 0]\n[15, 1]\n[2, 14]\n[16, 0]\n[16, 0]]"] ;
264 -> 265 ;
266 [label="X[946] <= -0.572\nentropy = 0.333\nsamples = 2\nvalue = [[1, 1]\n[2, 0]\n[1, 1]\n[2, 0]\n[2, 0]\n[2, 0]]"] ;
265 -> 266 ;
267 [label="entropy = 0.0\nsamples = 1\nvalue = [[0, 1]\n[1, 0]\n[1, 0]\n[1, 0]\n[1, 0]\n[1, 0]]"] ;
266 -> 267 ;
268 [label="entropy = 0.0\nsamples = 1\nvalue = [[1, 0]\n[1, 0]\n[0, 1]\n[1, 0]\n[1, 0]\n[1, 0]]"] ;
266 -> 268 ;
269 [label="entropy = 0.0\nsamples = 14\nvalue = [[14, 0]\n[14, 0]\n[14, 0]\n[0, 14]\n[14, 0]\n[14, 0]]"] ;
265 -> 269 ;
270 [label="X[1005] <= 0.142\nentropy = 0.604\nsamples = 16\nvalue = [[15, 1]\n[14, 2]\n[15, 1]\n[12, 4]\n[13, 3]\n[11, 5]]"] ;
264 -> 270 ;
271 [label="X[808] <= -0.921\nentropy = 0.46\nsamples = 9\nvalue = [[8, 1]\n[7, 2]\n[8, 1]\n[9, 0]\n[9, 0]\n[4, 5]]"] ;
270 -> 271 ;
272 [label="entropy = 0.0\nsamples = 5\nvalue = [[5, 0]\n[5, 0]\n[5, 0]\n[5, 0]\n[5, 0]\n[0, 5]]"] ;
271 -> 272 ;
273 [label="X[861] <= -0.687\nentropy = 0.437\nsamples = 4\nvalue = [[3, 1]\n[2, 2]\n[3, 1]\n[4, 0]\n[4, 0]\n[4, 0]]"] ;
271 -> 273 ;
274 [label="X[458] <= -0.0\nentropy = 0.333\nsamples = 2\nvalue = [[1, 1]\n[2, 0]\n[1, 1]\n[2, 0]\n[2, 0]\n[2, 0]]"] ;
273 -> 274 ;
275 [label="entropy = 0.0\nsamples = 1\nvalue = [[1, 0]\n[1, 0]\n[0, 1]\n[1, 0]\n[1, 0]\n[1, 0]]"] ;
274 -> 275 ;
276 [label="entropy = 0.0\nsamples = 1\nvalue = [[0, 1]\n[1, 0]\n[1, 0]\n[1, 0]\n[1, 0]\n[1, 0]]"] ;
274 -> 276 ;
277 [label="entropy = 0.0\nsamples = 2\nvalue = [[2, 0]\n[0, 2]\n[2, 0]\n[2, 0]\n[2, 0]\n[2, 0]]"] ;
273 -> 277 ;
278 [label="X[25] <= -0.474\nentropy = 0.328\nsamples = 7\nvalue = [[7, 0]\n[7, 0]\n[7, 0]\n[3, 4]\n[4, 3]\n[7, 0]]"] ;
270 -> 278 ;
279 [label="entropy = 0.0\nsamples = 3\nvalue = [[3, 0]\n[3, 0]\n[3, 0]\n[3, 0]\n[0, 3]\n[3, 0]]"] ;
278 -> 279 ;
280 [label="entropy = 0.0\nsamples = 4\nvalue = [[4, 0]\n[4, 0]\n[4, 0]\n[0, 4]\n[4, 0]\n[4, 0]]"] ;
278 -> 280 ;
281 [label="X[822] <= -0.832\nentropy = 0.405\nsamples = 22\nvalue = [[22, 0]\n[12, 10]\n[12, 10]\n[20, 2]\n[22, 0]\n[22, 0]]"] ;
263 -> 281 ;
282 [label="X[988] <= -0.903\nentropy = 0.298\nsamples = 13\nvalue = [[13, 0]\n[12, 1]\n[3, 10]\n[11, 2]\n[13, 0]\n[13, 0]]"] ;
281 -> 282 ;
283 [label="entropy = 0.0\nsamples = 2\nvalue = [[2, 0]\n[2, 0]\n[2, 0]\n[0, 2]\n[2, 0]\n[2, 0]]"] ;
282 -> 283 ;
284 [label="X[947] <= 0.697\nentropy = 0.146\nsamples = 11\nvalue = [[11, 0]\n[10, 1]\n[1, 10]\n[11, 0]\n[11, 0]\n[11, 0]]"] ;
282 -> 284 ;
285 [label="entropy = 0.0\nsamples = 10\nvalue = [[10, 0]\n[10, 0]\n[0, 10]\n[10, 0]\n[10, 0]\n[10, 0]]"] ;
284 -> 285 ;
286 [label="entropy = 0.0\nsamples = 1\nvalue = [[1, 0]\n[0, 1]\n[1, 0]\n[1, 0]\n[1, 0]\n[1, 0]]"] ;
284 -> 286 ;
287 [label="entropy = 0.0\nsamples = 9\nvalue = [[9, 0]\n[0, 9]\n[9, 0]\n[9, 0]\n[9, 0]\n[9, 0]]"] ;
281 -> 287 ;
288 [label="entropy = 0.0\nsamples = 36\nvalue = [[36, 0]\n[36, 0]\n[36, 0]\n[0, 36]\n[36, 0]\n[36, 0]]"] ;
236 -> 288 ;
289 [label="X[1023] <= -0.736\nentropy = 0.518\nsamples = 1347\nvalue = [[1241, 106]\n[1316, 31]\n[1259, 88]\n[632, 715]\n[1094, 253]\n[1193, 154]]"] ;
159 -> 289 ;
290 [label="X[855] <= 0.191\nentropy = 0.401\nsamples = 259\nvalue = [[253, 6]\n[257, 2]\n[242, 17]\n[249, 10]\n[83, 176]\n[211, 48]]"] ;
289 -> 290 ;
291 [label="X[43] <= -0.474\nentropy = 0.445\nsamples = 76\nvalue = [[75, 1]\n[76, 0]\n[66, 10]\n[67, 9]\n[67, 9]\n[29, 47]]"] ;
290 -> 291 ;
292 [label="X[882] <= -0.042\nentropy = 0.134\nsamples = 50\nvalue = [[50, 0]\n[50, 0]\n[50, 0]\n[46, 4]\n[50, 0]\n[4, 46]]"] ;
291 -> 292 ;
293 [label="entropy = 0.0\nsamples = 44\nvalue = [[44, 0]\n[44, 0]\n[44, 0]\n[44, 0]\n[44, 0]\n[0, 44]]"] ;
292 -> 293 ;
294 [label="X[888] <= 0.406\nentropy = 0.306\nsamples = 6\nvalue = [[6, 0]\n[6, 0]\n[6, 0]\n[2, 4]\n[6, 0]\n[4, 2]]"] ;
292 -> 294 ;
295 [label="entropy = 0.0\nsamples = 4\nvalue = [[4, 0]\n[4, 0]\n[4, 0]\n[0, 4]\n[4, 0]\n[4, 0]]"] ;
294 -> 295 ;
296 [label="entropy = 0.0\nsamples = 2\nvalue = [[2, 0]\n[2, 0]\n[2, 0]\n[2, 0]\n[2, 0]\n[0, 2]]"] ;
294 -> 296 ;
297 [label="X[3] <= -0.201\nentropy = 0.511\nsamples = 26\nvalue = [[25, 1]\n[26, 0]\n[16, 10]\n[21, 5]\n[17, 9]\n[25, 1]]"] ;
291 -> 297 ;
298 [label="X[1] <= -0.825\nentropy = 0.351\nsamples = 15\nvalue = [[14, 1]\n[15, 0]\n[5, 10]\n[11, 4]\n[15, 0]\n[15, 0]]"] ;
297 -> 298 ;
299 [label="X[82] <= 0.388\nentropy = 0.37\nsamples = 6\nvalue = [[5, 1]\n[6, 0]\n[5, 1]\n[2, 4]\n[6, 0]\n[6, 0]]"] ;
298 -> 299 ;
300 [label="entropy = 0.0\nsamples = 4\nvalue = [[4, 0]\n[4, 0]\n[4, 0]\n[0, 4]\n[4, 0]\n[4, 0]]"] ;
299 -> 300 ;
301 [label="X[13] <= -0.505\nentropy = 0.333\nsamples = 2\nvalue = [[1, 1]\n[2, 0]\n[1, 1]\n[2, 0]\n[2, 0]\n[2, 0]]"] ;
299 -> 301 ;
302 [label="entropy = 0.0\nsamples = 1\nvalue = [[1, 0]\n[1, 0]\n[0, 1]\n[1, 0]\n[1, 0]\n[1, 0]]"] ;
301 -> 302 ;
303 [label="entropy = 0.0\nsamples = 1\nvalue = [[0, 1]\n[1, 0]\n[1, 0]\n[1, 0]\n[1, 0]\n[1, 0]]"] ;
301 -> 303 ;
304 [label="entropy = 0.0\nsamples = 9\nvalue = [[9, 0]\n[9, 0]\n[0, 9]\n[9, 0]\n[9, 0]\n[9, 0]]"] ;
298 -> 304 ;
305 [label="X[229] <= 0.278\nentropy = 0.261\nsamples = 11\nvalue = [[11, 0]\n[11, 0]\n[11, 0]\n[10, 1]\n[2, 9]\n[10, 1]]"] ;
297 -> 305 ;
306 [label="entropy = 0.0\nsamples = 9\nvalue = [[9, 0]\n[9, 0]\n[9, 0]\n[9, 0]\n[0, 9]\n[9, 0]]"] ;
305 -> 306 ;
307 [label="X[305] <= 0.434\nentropy = 0.333\nsamples = 2\nvalue = [[2, 0]\n[2, 0]\n[2, 0]\n[1, 1]\n[2, 0]\n[1, 1]]"] ;
305 -> 307 ;
308 [label="entropy = 0.0\nsamples = 1\nvalue = [[1, 0]\n[1, 0]\n[1, 0]\n[1, 0]\n[1, 0]\n[0, 1]]"] ;
307 -> 308 ;
309 [label="entropy = 0.0\nsamples = 1\nvalue = [[1, 0]\n[1, 0]\n[1, 0]\n[0, 1]\n[1, 0]\n[1, 0]]"] ;
307 -> 309 ;
310 [label="X[88] <= 0.261\nentropy = 0.171\nsamples = 183\nvalue = [[178, 5]\n[181, 2]\n[176, 7]\n[182, 1]\n[16, 167]\n[182, 1]]"] ;
290 -> 310 ;
311 [label="X[1] <= -0.997\nentropy = 0.08\nsamples = 172\nvalue = [[168, 4]\n[172, 0]\n[172, 0]\n[171, 1]\n[6, 166]\n[171, 1]]"] ;
310 -> 311 ;
312 [label="X[132] <= -0.609\nentropy = 0.37\nsamples = 6\nvalue = [[2, 4]\n[6, 0]\n[6, 0]\n[5, 1]\n[6, 0]\n[5, 1]]"] ;
311 -> 312 ;
313 [label="entropy = 0.0\nsamples = 4\nvalue = [[0, 4]\n[4, 0]\n[4, 0]\n[4, 0]\n[4, 0]\n[4, 0]]"] ;
312 -> 313 ;
314 [label="X[960] <= 0.208\nentropy = 0.333\nsamples = 2\nvalue = [[2, 0]\n[2, 0]\n[2, 0]\n[1, 1]\n[2, 0]\n[1, 1]]"] ;
312 -> 314 ;
315 [label="entropy = 0.0\nsamples = 1\nvalue = [[1, 0]\n[1, 0]\n[1, 0]\n[1, 0]\n[1, 0]\n[0, 1]]"] ;
314 -> 315 ;
316 [label="entropy = 0.0\nsamples = 1\nvalue = [[1, 0]\n[1, 0]\n[1, 0]\n[0, 1]\n[1, 0]\n[1, 0]]"] ;
314 -> 316 ;
317 [label="entropy = 0.0\nsamples = 166\nvalue = [[166, 0]\n[166, 0]\n[166, 0]\n[166, 0]\n[0, 166]\n[166, 0]]"] ;
311 -> 317 ;
318 [label="X[28] <= 0.563\nentropy = 0.418\nsamples = 11\nvalue = [[10, 1]\n[9, 2]\n[4, 7]\n[11, 0]\n[10, 1]\n[11, 0]]"] ;
310 -> 318 ;
319 [label="entropy = 0.0\nsamples = 7\nvalue = [[7, 0]\n[7, 0]\n[0, 7]\n[7, 0]\n[7, 0]\n[7, 0]]"] ;
318 -> 319 ;
320 [label="X[649] <= -0.099\nentropy = 0.437\nsamples = 4\nvalue = [[3, 1]\n[2, 2]\n[4, 0]\n[4, 0]\n[3, 1]\n[4, 0]]"] ;
318 -> 320 ;
321 [label="X[610] <= -0.694\nentropy = 0.333\nsamples = 2\nvalue = [[1, 1]\n[2, 0]\n[2, 0]\n[2, 0]\n[1, 1]\n[2, 0]]"] ;
320 -> 321 ;
322 [label="entropy = 0.0\nsamples = 1\nvalue = [[0, 1]\n[1, 0]\n[1, 0]\n[1, 0]\n[1, 0]\n[1, 0]]"] ;
321 -> 322 ;
323 [label="entropy = 0.0\nsamples = 1\nvalue = [[1, 0]\n[1, 0]\n[1, 0]\n[1, 0]\n[0, 1]\n[1, 0]]"] ;
321 -> 323 ;
324 [label="entropy = 0.0\nsamples = 2\nvalue = [[2, 0]\n[0, 2]\n[2, 0]\n[2, 0]\n[2, 0]\n[2, 0]]"] ;
320 -> 324 ;
325 [label="X[82] <= -0.296\nentropy = 0.456\nsamples = 1088\nvalue = [[988, 100]\n[1059, 29]\n[1017, 71]\n[383, 705]\n[1011, 77]\n[982, 106]]"] ;
289 -> 325 ;
326 [label="X[0] <= -1.031\nentropy = 0.591\nsamples = 211\nvalue = [[143, 68]\n[208, 3]\n[193, 18]\n[171, 40]\n[164, 47]\n[176, 35]]"] ;
325 -> 326 ;
327 [label="X[838] <= -0.414\nentropy = 0.205\nsamples = 75\nvalue = [[9, 66]\n[74, 1]\n[75, 0]\n[71, 4]\n[71, 4]\n[75, 0]]"] ;
326 -> 327 ;
328 [label="entropy = 0.0\nsamples = 63\nvalue = [[0, 63]\n[63, 0]\n[63, 0]\n[63, 0]\n[63, 0]\n[63, 0]]"] ;
327 -> 328 ;
329 [label="X[804] <= -0.113\nentropy = 0.51\nsamples = 12\nvalue = [[9, 3]\n[11, 1]\n[12, 0]\n[8, 4]\n[8, 4]\n[12, 0]]"] ;
327 -> 329 ;
330 [label="entropy = 0.0\nsamples = 4\nvalue = [[4, 0]\n[4, 0]\n[4, 0]\n[0, 4]\n[4, 0]\n[4, 0]]"] ;
329 -> 330 ;
331 [label="X[114] <= -0.273\nentropy = 0.416\nsamples = 8\nvalue = [[5, 3]\n[7, 1]\n[8, 0]\n[8, 0]\n[4, 4]\n[8, 0]]"] ;
329 -> 331 ;
332 [label="X[518] <= -0.838\nentropy = 0.27\nsamples = 4\nvalue = [[1, 3]\n[3, 1]\n[4, 0]\n[4, 0]\n[4, 0]\n[4, 0]]"] ;
331 -> 332 ;
333 [label="entropy = 0.0\nsamples = 1\nvalue = [[1, 0]\n[0, 1]\n[1, 0]\n[1, 0]\n[1, 0]\n[1, 0]]"] ;
332 -> 333 ;
334 [label="entropy = 0.0\nsamples = 3\nvalue = [[0, 3]\n[3, 0]\n[3, 0]\n[3, 0]\n[3, 0]\n[3, 0]]"] ;
332 -> 334 ;
335 [label="entropy = 0.0\nsamples = 4\nvalue = [[4, 0]\n[4, 0]\n[4, 0]\n[4, 0]\n[0, 4]\n[4, 0]]"] ;
331 -> 335 ;
336 [label="X[8] <= 0.486\nentropy = 0.557\nsamples = 136\nvalue = [[134, 2]\n[134, 2]\n[118, 18]\n[100, 36]\n[93, 43]\n[101, 35]]"] ;
326 -> 336 ;
337 [label="X[679] <= -2.054\nentropy = 0.5\nsamples = 94\nvalue = [[92, 2]\n[92, 2]\n[76, 18]\n[58, 36]\n[93, 1]\n[59, 35]]"] ;
336 -> 337 ;
338 [label="entropy = 0.0\nsamples = 17\nvalue = [[17, 0]\n[17, 0]\n[0, 17]\n[17, 0]\n[17, 0]\n[17, 0]]"] ;
337 -> 338 ;
339 [label="X[342] <= -0.731\nentropy = 0.423\nsamples = 77\nvalue = [[75, 2]\n[75, 2]\n[76, 1]\n[41, 36]\n[76, 1]\n[42, 35]]"] ;
337 -> 339 ;
340 [label="entropy = 0.0\nsamples = 29\nvalue = [[29, 0]\n[29, 0]\n[29, 0]\n[0, 29]\n[29, 0]\n[29, 0]]"] ;
339 -> 340 ;
341 [label="X[674] <= -0.26\nentropy = 0.372\nsamples = 48\nvalue = [[46, 2]\n[46, 2]\n[47, 1]\n[41, 7]\n[47, 1]\n[13, 35]]"] ;
339 -> 341 ;
342 [label="X[849] <= 0.558\nentropy = 0.062\nsamples = 35\nvalue = [[35, 0]\n[35, 0]\n[35, 0]\n[35, 0]\n[34, 1]\n[1, 34]]"] ;
341 -> 342 ;
343 [label="entropy = 0.0\nsamples = 34\nvalue = [[34, 0]\n[34, 0]\n[34, 0]\n[34, 0]\n[34, 0]\n[0, 34]]"] ;
342 -> 343 ;
344 [label="entropy = 0.0\nsamples = 1\nvalue = [[1, 0]\n[1, 0]\n[1, 0]\n[1, 0]\n[0, 1]\n[1, 0]]"] ;
342 -> 344 ;
345 [label="X[85] <= -0.658\nentropy = 0.503\nsamples = 13\nvalue = [[11, 2]\n[11, 2]\n[12, 1]\n[6, 7]\n[13, 0]\n[12, 1]]"] ;
341 -> 345 ;
346 [label="entropy = 0.0\nsamples = 7\nvalue = [[7, 0]\n[7, 0]\n[7, 0]\n[0, 7]\n[7, 0]\n[7, 0]]"] ;
345 -> 346 ;
347 [label="X[775] <= -0.246\nentropy = 0.523\nsamples = 6\nvalue = [[4, 2]\n[4, 2]\n[5, 1]\n[6, 0]\n[6, 0]\n[5, 1]]"] ;
345 -> 347 ;
348 [label="entropy = 0.0\nsamples = 2\nvalue = [[0, 2]\n[2, 0]\n[2, 0]\n[2, 0]\n[2, 0]\n[2, 0]]"] ;
347 -> 348 ;
349 [label="X[306] <= -0.087\nentropy = 0.437\nsamples = 4\nvalue = [[4, 0]\n[2, 2]\n[3, 1]\n[4, 0]\n[4, 0]\n[3, 1]]"] ;
347 -> 349 ;
350 [label="entropy = 0.0\nsamples = 2\nvalue = [[2, 0]\n[0, 2]\n[2, 0]\n[2, 0]\n[2, 0]\n[2, 0]]"] ;
349 -> 350 ;
351 [label="X[341] <= 0.047\nentropy = 0.333\nsamples = 2\nvalue = [[2, 0]\n[2, 0]\n[1, 1]\n[2, 0]\n[2, 0]\n[1, 1]]"] ;
349 -> 351 ;
352 [label="entropy = 0.0\nsamples = 1\nvalue = [[1, 0]\n[1, 0]\n[1, 0]\n[1, 0]\n[1, 0]\n[0, 1]]"] ;
351 -> 352 ;
353 [label="entropy = 0.0\nsamples = 1\nvalue = [[1, 0]\n[1, 0]\n[0, 1]\n[1, 0]\n[1, 0]\n[1, 0]]"] ;
351 -> 353 ;
354 [label="entropy = 0.0\nsamples = 42\nvalue = [[42, 0]\n[42, 0]\n[42, 0]\n[42, 0]\n[0, 42]\n[42, 0]]"] ;
336 -> 354 ;
355 [label="X[96] <= 0.397\nentropy = 0.361\nsamples = 877\nvalue = [[845, 32]\n[851, 26]\n[824, 53]\n[212, 665]\n[847, 30]\n[806, 71]]"] ;
325 -> 355 ;
356 [label="X[535] <= -0.595\nentropy = 0.255\nsamples = 743\nvalue = [[737, 6]\n[722, 21]\n[714, 29]\n[109, 634]\n[726, 17]\n[707, 36]]"] ;
355 -> 356 ;
357 [label="X[694] <= -0.43\nentropy = 0.103\nsamples = 544\nvalue = [[539, 5]\n[539, 5]\n[536, 8]\n[24, 520]\n[542, 2]\n[540, 4]]"] ;
356 -> 357 ;
358 [label="X[698] <= -0.64\nentropy = 0.064\nsamples = 521\nvalue = [[519, 2]\n[520, 1]\n[515, 6]\n[13, 508]\n[520, 1]\n[518, 3]]"] ;
357 -> 358 ;
359 [label="X[10] <= 0.067\nentropy = 0.206\nsamples = 104\nvalue = [[102, 2]\n[104, 0]\n[98, 6]\n[12, 92]\n[103, 1]\n[101, 3]]"] ;
358 -> 359 ;
360 [label="X[852] <= -0.155\nentropy = 0.104\nsamples = 97\nvalue = [[97, 0]\n[97, 0]\n[93, 4]\n[5, 92]\n[97, 0]\n[96, 1]]"] ;
359 -> 360 ;
361 [label="X[290] <= 0.196\nentropy = 0.287\nsamples = 22\nvalue = [[22, 0]\n[22, 0]\n[18, 4]\n[5, 17]\n[22, 0]\n[21, 1]]"] ;
360 -> 361 ;
362 [label="X[117] <= 0.736\nentropy = 0.27\nsamples = 4\nvalue = [[4, 0]\n[4, 0]\n[1, 3]\n[4, 0]\n[4, 0]\n[3, 1]]"] ;
361 -> 362 ;
363 [label="entropy = 0.0\nsamples = 3\nvalue = [[3, 0]\n[3, 0]\n[0, 3]\n[3, 0]\n[3, 0]\n[3, 0]]"] ;
362 -> 363 ;
364 [label="entropy = 0.0\nsamples = 1\nvalue = [[1, 0]\n[1, 0]\n[1, 0]\n[1, 0]\n[1, 0]\n[0, 1]]"] ;
362 -> 364 ;
365 [label="X[976] <= -1.03\nentropy = 0.103\nsamples = 18\nvalue = [[18, 0]\n[18, 0]\n[17, 1]\n[1, 17]\n[18, 0]\n[18, 0]]"] ;
361 -> 365 ;
366 [label="entropy = 0.0\nsamples = 1\nvalue = [[1, 0]\n[1, 0]\n[0, 1]\n[1, 0]\n[1, 0]\n[1, 0]]"] ;
365 -> 366 ;
367 [label="entropy = 0.0\nsamples = 17\nvalue = [[17, 0]\n[17, 0]\n[17, 0]\n[0, 17]\n[17, 0]\n[17, 0]]"] ;
365 -> 367 ;
368 [label="entropy = 0.0\nsamples = 75\nvalue = [[75, 0]\n[75, 0]\n[75, 0]\n[0, 75]\n[75, 0]\n[75, 0]]"] ;
360 -> 368 ;
369 [label="X[779] <= -0.339\nentropy = 0.53\nsamples = 7\nvalue = [[5, 2]\n[7, 0]\n[5, 2]\n[7, 0]\n[6, 1]\n[5, 2]]"] ;
359 -> 369 ;
370 [label="X[762] <= -0.662\nentropy = 0.444\nsamples = 5\nvalue = [[3, 2]\n[5, 0]\n[3, 2]\n[5, 0]\n[4, 1]\n[5, 0]]"] ;
369 -> 370 ;
371 [label="entropy = 0.0\nsamples = 2\nvalue = [[0, 2]\n[2, 0]\n[2, 0]\n[2, 0]\n[2, 0]\n[2, 0]]"] ;
370 -> 371 ;
372 [label="X[191] <= 0.851\nentropy = 0.306\nsamples = 3\nvalue = [[3, 0]\n[3, 0]\n[1, 2]\n[3, 0]\n[2, 1]\n[3, 0]]"] ;
370 -> 372 ;
373 [label="entropy = 0.0\nsamples = 2\nvalue = [[2, 0]\n[2, 0]\n[0, 2]\n[2, 0]\n[2, 0]\n[2, 0]]"] ;
372 -> 373 ;
374 [label="entropy = 0.0\nsamples = 1\nvalue = [[1, 0]\n[1, 0]\n[1, 0]\n[1, 0]\n[0, 1]\n[1, 0]]"] ;
372 -> 374 ;
375 [label="entropy = 0.0\nsamples = 2\nvalue = [[2, 0]\n[2, 0]\n[2, 0]\n[2, 0]\n[2, 0]\n[0, 2]]"] ;
369 -> 375 ;
376 [label="X[785] <= 0.963\nentropy = 0.008\nsamples = 417\nvalue = [[417, 0]\n[416, 1]\n[417, 0]\n[1, 416]\n[417, 0]\n[417, 0]]"] ;
358 -> 376 ;
377 [label="entropy = 0.0\nsamples = 410\nvalue = [[410, 0]\n[410, 0]\n[410, 0]\n[0, 410]\n[410, 0]\n[410, 0]]"] ;
376 -> 377 ;
378 [label="X[761] <= 0.858\nentropy = 0.197\nsamples = 7\nvalue = [[7, 0]\n[6, 1]\n[7, 0]\n[1, 6]\n[7, 0]\n[7, 0]]"] ;
376 -> 378 ;
379 [label="entropy = 0.0\nsamples = 6\nvalue = [[6, 0]\n[6, 0]\n[6, 0]\n[0, 6]\n[6, 0]\n[6, 0]]"] ;
378 -> 379 ;
380 [label="entropy = 0.0\nsamples = 1\nvalue = [[1, 0]\n[0, 1]\n[1, 0]\n[1, 0]\n[1, 0]\n[1, 0]]"] ;
378 -> 380 ;
381 [label="X[246] <= 0.013\nentropy = 0.528\nsamples = 23\nvalue = [[20, 3]\n[19, 4]\n[21, 2]\n[11, 12]\n[22, 1]\n[22, 1]]"] ;
357 -> 381 ;
382 [label="X[455] <= -1.78\nentropy = 0.523\nsamples = 6\nvalue = [[4, 2]\n[6, 0]\n[4, 2]\n[6, 0]\n[5, 1]\n[5, 1]]"] ;
381 -> 382 ;
383 [label="entropy = 0.0\nsamples = 2\nvalue = [[2, 0]\n[2, 0]\n[0, 2]\n[2, 0]\n[2, 0]\n[2, 0]]"] ;
382 -> 383 ;
384 [label="X[985] <= -0.018\nentropy = 0.437\nsamples = 4\nvalue = [[2, 2]\n[4, 0]\n[4, 0]\n[4, 0]\n[3, 1]\n[3, 1]]"] ;
382 -> 384 ;
385 [label="entropy = 0.0\nsamples = 2\nvalue = [[0, 2]\n[2, 0]\n[2, 0]\n[2, 0]\n[2, 0]\n[2, 0]]"] ;
384 -> 385 ;
386 [label="X[513] <= -1.706\nentropy = 0.333\nsamples = 2\nvalue = [[2, 0]\n[2, 0]\n[2, 0]\n[2, 0]\n[1, 1]\n[1, 1]]"] ;
384 -> 386 ;
387 [label="entropy = 0.0\nsamples = 1\nvalue = [[1, 0]\n[1, 0]\n[1, 0]\n[1, 0]\n[0, 1]\n[1, 0]]"] ;
386 -> 387 ;
388 [label="entropy = 0.0\nsamples = 1\nvalue = [[1, 0]\n[1, 0]\n[1, 0]\n[1, 0]\n[1, 0]\n[0, 1]]"] ;
386 -> 388 ;
389 [label="X[354] <= 0.142\nentropy = 0.331\nsamples = 17\nvalue = [[16, 1]\n[13, 4]\n[17, 0]\n[5, 12]\n[17, 0]\n[17, 0]]"] ;
381 -> 389 ;
390 [label="X[237] <= 0.179\nentropy = 0.241\nsamples = 5\nvalue = [[5, 0]\n[1, 4]\n[5, 0]\n[4, 1]\n[5, 0]\n[5, 0]]"] ;
389 -> 390 ;
391 [label="entropy = 0.0\nsamples = 4\nvalue = [[4, 0]\n[0, 4]\n[4, 0]\n[4, 0]\n[4, 0]\n[4, 0]]"] ;
390 -> 391 ;
392 [label="entropy = 0.0\nsamples = 1\nvalue = [[1, 0]\n[1, 0]\n[1, 0]\n[0, 1]\n[1, 0]\n[1, 0]]"] ;
390 -> 392 ;
393 [label="X[6] <= -1.408\nentropy = 0.138\nsamples = 12\nvalue = [[11, 1]\n[12, 0]\n[12, 0]\n[1, 11]\n[12, 0]\n[12, 0]]"] ;
389 -> 393 ;
394 [label="entropy = 0.0\nsamples = 1\nvalue = [[0, 1]\n[1, 0]\n[1, 0]\n[1, 0]\n[1, 0]\n[1, 0]]"] ;
393 -> 394 ;
395 [label="entropy = 0.0\nsamples = 11\nvalue = [[11, 0]\n[11, 0]\n[11, 0]\n[0, 11]\n[11, 0]\n[11, 0]]"] ;
393 -> 395 ;
396 [label="X[103] <= 0.071\nentropy = 0.49\nsamples = 199\nvalue = [[198, 1]\n[183, 16]\n[178, 21]\n[85, 114]\n[184, 15]\n[167, 32]]"] ;
356 -> 396 ;
397 [label="X[360] <= -0.011\nentropy = 0.521\nsamples = 80\nvalue = [[79, 1]\n[75, 5]\n[77, 3]\n[51, 29]\n[70, 10]\n[48, 32]]"] ;
396 -> 397 ;
398 [label="X[67] <= -0.136\nentropy = 0.427\nsamples = 49\nvalue = [[48, 1]\n[46, 3]\n[49, 0]\n[39, 10]\n[45, 4]\n[18, 31]]"] ;
397 -> 398 ;
399 [label="X[18] <= -0.073\nentropy = 0.519\nsamples = 21\nvalue = [[20, 1]\n[19, 2]\n[21, 0]\n[11, 10]\n[18, 3]\n[16, 5]]"] ;
398 -> 399 ;
400 [label="X[413] <= -0.361\nentropy = 0.385\nsamples = 8\nvalue = [[7, 1]\n[6, 2]\n[8, 0]\n[8, 0]\n[8, 0]\n[3, 5]]"] ;
399 -> 400 ;
401 [label="entropy = 0.0\nsamples = 5\nvalue = [[5, 0]\n[5, 0]\n[5, 0]\n[5, 0]\n[5, 0]\n[0, 5]]"] ;
400 -> 401 ;
402 [label="X[345] <= -0.585\nentropy = 0.306\nsamples = 3\nvalue = [[2, 1]\n[1, 2]\n[3, 0]\n[3, 0]\n[3, 0]\n[3, 0]]"] ;
400 -> 402 ;
403 [label="entropy = 0.0\nsamples = 1\nvalue = [[0, 1]\n[1, 0]\n[1, 0]\n[1, 0]\n[1, 0]\n[1, 0]]"] ;
402 -> 403 ;
404 [label="entropy = 0.0\nsamples = 2\nvalue = [[2, 0]\n[0, 2]\n[2, 0]\n[2, 0]\n[2, 0]\n[2, 0]]"] ;
402 -> 404 ;
405 [label="X[660] <= -0.064\nentropy = 0.26\nsamples = 13\nvalue = [[13, 0]\n[13, 0]\n[13, 0]\n[3, 10]\n[10, 3]\n[13, 0]]"] ;
399 -> 405 ;
406 [label="entropy = 0.0\nsamples = 10\nvalue = [[10, 0]\n[10, 0]\n[10, 0]\n[0, 10]\n[10, 0]\n[10, 0]]"] ;
405 -> 406 ;
407 [label="entropy = 0.0\nsamples = 3\nvalue = [[3, 0]\n[3, 0]\n[3, 0]\n[3, 0]\n[0, 3]\n[3, 0]]"] ;
405 -> 407 ;
408 [label="X[64] <= 0.154\nentropy = 0.136\nsamples = 28\nvalue = [[28, 0]\n[27, 1]\n[28, 0]\n[28, 0]\n[27, 1]\n[2, 26]]"] ;
398 -> 408 ;
409 [label="entropy = 0.0\nsamples = 26\nvalue = [[26, 0]\n[26, 0]\n[26, 0]\n[26, 0]\n[26, 0]\n[0, 26]]"] ;
408 -> 409 ;
410 [label="X[1] <= -0.321\nentropy = 0.333\nsamples = 2\nvalue = [[2, 0]\n[1, 1]\n[2, 0]\n[2, 0]\n[1, 1]\n[2, 0]]"] ;
408 -> 410 ;
411 [label="entropy = 0.0\nsamples = 1\nvalue = [[1, 0]\n[1, 0]\n[1, 0]\n[1, 0]\n[0, 1]\n[1, 0]]"] ;
410 -> 411 ;
412 [label="entropy = 0.0\nsamples = 1\nvalue = [[1, 0]\n[0, 1]\n[1, 0]\n[1, 0]\n[1, 0]\n[1, 0]]"] ;
410 -> 412 ;
413 [label="X[3] <= 0.232\nentropy = 0.447\nsamples = 31\nvalue = [[31, 0]\n[29, 2]\n[28, 3]\n[12, 19]\n[25, 6]\n[30, 1]]"] ;
397 -> 413 ;
414 [label="X[862] <= -0.098\nentropy = 0.254\nsamples = 22\nvalue = [[22, 0]\n[21, 1]\n[19, 3]\n[4, 18]\n[22, 0]\n[22, 0]]"] ;
413 -> 414 ;
415 [label="entropy = 0.0\nsamples = 3\nvalue = [[3, 0]\n[3, 0]\n[0, 3]\n[3, 0]\n[3, 0]\n[3, 0]]"] ;
414 -> 415 ;
416 [label="X[833] <= 0.679\nentropy = 0.099\nsamples = 19\nvalue = [[19, 0]\n[18, 1]\n[19, 0]\n[1, 18]\n[19, 0]\n[19, 0]]"] ;
414 -> 416 ;
417 [label="entropy = 0.0\nsamples = 18\nvalue = [[18, 0]\n[18, 0]\n[18, 0]\n[0, 18]\n[18, 0]\n[18, 0]]"] ;
416 -> 417 ;
418 [label="entropy = 0.0\nsamples = 1\nvalue = [[1, 0]\n[0, 1]\n[1, 0]\n[1, 0]\n[1, 0]\n[1, 0]]"] ;
416 -> 418 ;
419 [label="X[528] <= 0.099\nentropy = 0.405\nsamples = 9\nvalue = [[9, 0]\n[8, 1]\n[9, 0]\n[8, 1]\n[3, 6]\n[8, 1]]"] ;
413 -> 419 ;
420 [label="entropy = 0.0\nsamples = 6\nvalue = [[6, 0]\n[6, 0]\n[6, 0]\n[6, 0]\n[0, 6]\n[6, 0]]"] ;
419 -> 420 ;
421 [label="X[900] <= 0.15\nentropy = 0.459\nsamples = 3\nvalue = [[3, 0]\n[2, 1]\n[3, 0]\n[2, 1]\n[3, 0]\n[2, 1]]"] ;
419 -> 421 ;
422 [label="entropy = 0.0\nsamples = 1\nvalue = [[1, 0]\n[1, 0]\n[1, 0]\n[1, 0]\n[1, 0]\n[0, 1]]"] ;
421 -> 422 ;
423 [label="X[825] <= 0.82\nentropy = 0.333\nsamples = 2\nvalue = [[2, 0]\n[1, 1]\n[2, 0]\n[1, 1]\n[2, 0]\n[2, 0]]"] ;
421 -> 423 ;
424 [label="entropy = 0.0\nsamples = 1\nvalue = [[1, 0]\n[1, 0]\n[1, 0]\n[0, 1]\n[1, 0]\n[1, 0]]"] ;
423 -> 424 ;
425 [label="entropy = 0.0\nsamples = 1\nvalue = [[1, 0]\n[0, 1]\n[1, 0]\n[1, 0]\n[1, 0]\n[1, 0]]"] ;
423 -> 425 ;
426 [label="X[752] <= 0.18\nentropy = 0.362\nsamples = 119\nvalue = [[119, 0]\n[108, 11]\n[101, 18]\n[34, 85]\n[114, 5]\n[119, 0]]"] ;
396 -> 426 ;
427 [label="X[176] <= 0.189\nentropy = 0.216\nsamples = 94\nvalue = [[94, 0]\n[92, 2]\n[88, 6]\n[12, 82]\n[90, 4]\n[94, 0]]"] ;
426 -> 427 ;
428 [label="X[901] <= -0.425\nentropy = 0.061\nsamples = 72\nvalue = [[72, 0]\n[72, 0]\n[70, 2]\n[2, 70]\n[72, 0]\n[72, 0]]"] ;
427 -> 428 ;
429 [label="X[1015] <= -0.372\nentropy = 0.306\nsamples = 6\nvalue = [[6, 0]\n[6, 0]\n[4, 2]\n[2, 4]\n[6, 0]\n[6, 0]]"] ;
428 -> 429 ;
430 [label="entropy = 0.0\nsamples = 4\nvalue = [[4, 0]\n[4, 0]\n[4, 0]\n[0, 4]\n[4, 0]\n[4, 0]]"] ;
429 -> 430 ;
431 [label="entropy = 0.0\nsamples = 2\nvalue = [[2, 0]\n[2, 0]\n[0, 2]\n[2, 0]\n[2, 0]\n[2, 0]]"] ;
429 -> 431 ;
432 [label="entropy = 0.0\nsamples = 66\nvalue = [[66, 0]\n[66, 0]\n[66, 0]\n[0, 66]\n[66, 0]\n[66, 0]]"] ;
428 -> 432 ;
433 [label="X[149] <= 0.29\nentropy = 0.467\nsamples = 22\nvalue = [[22, 0]\n[20, 2]\n[18, 4]\n[10, 12]\n[18, 4]\n[22, 0]]"] ;
427 -> 433 ;
434 [label="X[289] <= 0.075\nentropy = 0.53\nsamples = 14\nvalue = [[14, 0]\n[12, 2]\n[10, 4]\n[10, 4]\n[10, 4]\n[14, 0]]"] ;
433 -> 434 ;
435 [label="entropy = 0.0\nsamples = 4\nvalue = [[4, 0]\n[4, 0]\n[4, 0]\n[4, 0]\n[0, 4]\n[4, 0]]"] ;
434 -> 435 ;
436 [label="X[124] <= 0.048\nentropy = 0.444\nsamples = 10\nvalue = [[10, 0]\n[8, 2]\n[6, 4]\n[6, 4]\n[10, 0]\n[10, 0]]"] ;
434 -> 436 ;
437 [label="entropy = 0.0\nsamples = 2\nvalue = [[2, 0]\n[0, 2]\n[2, 0]\n[2, 0]\n[2, 0]\n[2, 0]]"] ;
436 -> 437 ;
438 [label="X[59] <= 0.242\nentropy = 0.333\nsamples = 8\nvalue = [[8, 0]\n[8, 0]\n[4, 4]\n[4, 4]\n[8, 0]\n[8, 0]]"] ;
436 -> 438 ;
439 [label="X[1022] <= -0.28\nentropy = 0.241\nsamples = 5\nvalue = [[5, 0]\n[5, 0]\n[1, 4]\n[4, 1]\n[5, 0]\n[5, 0]]"] ;
438 -> 439 ;
440 [label="entropy = 0.0\nsamples = 1\nvalue = [[1, 0]\n[1, 0]\n[1, 0]\n[0, 1]\n[1, 0]\n[1, 0]]"] ;
439 -> 440 ;
441 [label="entropy = 0.0\nsamples = 4\nvalue = [[4, 0]\n[4, 0]\n[0, 4]\n[4, 0]\n[4, 0]\n[4, 0]]"] ;
439 -> 441 ;
442 [label="entropy = 0.0\nsamples = 3\nvalue = [[3, 0]\n[3, 0]\n[3, 0]\n[0, 3]\n[3, 0]\n[3, 0]]"] ;
438 -> 442 ;
443 [label="entropy = 0.0\nsamples = 8\nvalue = [[8, 0]\n[8, 0]\n[8, 0]\n[0, 8]\n[8, 0]\n[8, 0]]"] ;
433 -> 443 ;
444 [label="X[698] <= -0.016\nentropy = 0.452\nsamples = 25\nvalue = [[25, 0]\n[16, 9]\n[13, 12]\n[22, 3]\n[24, 1]\n[25, 0]]"] ;
426 -> 444 ;
445 [label="X[793] <= -0.392\nentropy = 0.197\nsamples = 14\nvalue = [[14, 0]\n[14, 0]\n[2, 12]\n[12, 2]\n[14, 0]\n[14, 0]]"] ;
444 -> 445 ;
446 [label="entropy = 0.0\nsamples = 10\nvalue = [[10, 0]\n[10, 0]\n[0, 10]\n[10, 0]\n[10, 0]\n[10, 0]]"] ;
445 -> 446 ;
447 [label="X[44] <= 0.342\nentropy = 0.333\nsamples = 4\nvalue = [[4, 0]\n[4, 0]\n[2, 2]\n[2, 2]\n[4, 0]\n[4, 0]]"] ;
445 -> 447 ;
448 [label="entropy = 0.0\nsamples = 2\nvalue = [[2, 0]\n[2, 0]\n[2, 0]\n[0, 2]\n[2, 0]\n[2, 0]]"] ;
447 -> 448 ;
449 [label="entropy = 0.0\nsamples = 2\nvalue = [[2, 0]\n[2, 0]\n[0, 2]\n[2, 0]\n[2, 0]\n[2, 0]]"] ;
447 -> 449 ;
450 [label="X[2] <= -0.37\nentropy = 0.261\nsamples = 11\nvalue = [[11, 0]\n[2, 9]\n[11, 0]\n[10, 1]\n[10, 1]\n[11, 0]]"] ;
444 -> 450 ;
451 [label="X[517] <= 0.09\nentropy = 0.333\nsamples = 2\nvalue = [[2, 0]\n[2, 0]\n[2, 0]\n[1, 1]\n[1, 1]\n[2, 0]]"] ;
450 -> 451 ;
452 [label="entropy = 0.0\nsamples = 1\nvalue = [[1, 0]\n[1, 0]\n[1, 0]\n[0, 1]\n[1, 0]\n[1, 0]]"] ;
451 -> 452 ;
453 [label="entropy = 0.0\nsamples = 1\nvalue = [[1, 0]\n[1, 0]\n[1, 0]\n[1, 0]\n[0, 1]\n[1, 0]]"] ;
451 -> 453 ;
454 [label="entropy = 0.0\nsamples = 9\nvalue = [[9, 0]\n[0, 9]\n[9, 0]\n[9, 0]\n[9, 0]\n[9, 0]]"] ;
450 -> 454 ;
455 [label="X[1023] <= 0.229\nentropy = 0.614\nsamples = 134\nvalue = [[108, 26]\n[129, 5]\n[110, 24]\n[103, 31]\n[121, 13]\n[99, 35]]"] ;
355 -> 455 ;
456 [label="X[584] <= -1.568\nentropy = 0.355\nsamples = 52\nvalue = [[52, 0]\n[52, 0]\n[28, 24]\n[25, 27]\n[51, 1]\n[52, 0]]"] ;
455 -> 456 ;
457 [label="entropy = 0.0\nsamples = 22\nvalue = [[22, 0]\n[22, 0]\n[0, 22]\n[22, 0]\n[22, 0]\n[22, 0]]"] ;
456 -> 457 ;
458 [label="X[323] <= 0.945\nentropy = 0.172\nsamples = 30\nvalue = [[30, 0]\n[30, 0]\n[28, 2]\n[3, 27]\n[29, 1]\n[30, 0]]"] ;
456 -> 458 ;
459 [label="entropy = 0.0\nsamples = 26\nvalue = [[26, 0]\n[26, 0]\n[26, 0]\n[0, 26]\n[26, 0]\n[26, 0]]"] ;
458 -> 459 ;
460 [label="X[368] <= 1.113\nentropy = 0.437\nsamples = 4\nvalue = [[4, 0]\n[4, 0]\n[2, 2]\n[3, 1]\n[3, 1]\n[4, 0]]"] ;
458 -> 460 ;
461 [label="X[57] <= 1.205\nentropy = 0.333\nsamples = 2\nvalue = [[2, 0]\n[2, 0]\n[2, 0]\n[1, 1]\n[1, 1]\n[2, 0]]"] ;
460 -> 461 ;
462 [label="entropy = 0.0\nsamples = 1\nvalue = [[1, 0]\n[1, 0]\n[1, 0]\n[1, 0]\n[0, 1]\n[1, 0]]"] ;
461 -> 462 ;
463 [label="entropy = 0.0\nsamples = 1\nvalue = [[1, 0]\n[1, 0]\n[1, 0]\n[0, 1]\n[1, 0]\n[1, 0]]"] ;
461 -> 463 ;
464 [label="entropy = 0.0\nsamples = 2\nvalue = [[2, 0]\n[2, 0]\n[0, 2]\n[2, 0]\n[2, 0]\n[2, 0]]"] ;
460 -> 464 ;
465 [label="X[121] <= 0.94\nentropy = 0.516\nsamples = 82\nvalue = [[56, 26]\n[77, 5]\n[82, 0]\n[78, 4]\n[70, 12]\n[47, 35]]"] ;
455 -> 465 ;
466 [label="X[1] <= -0.785\nentropy = 0.355\nsamples = 39\nvalue = [[13, 26]\n[39, 0]\n[39, 0]\n[36, 3]\n[29, 10]\n[39, 0]]"] ;
465 -> 466 ;
467 [label="entropy = 0.0\nsamples = 24\nvalue = [[0, 24]\n[24, 0]\n[24, 0]\n[24, 0]\n[24, 0]\n[24, 0]]"] ;
466 -> 467 ;
468 [label="X[679] <= -0.17\nentropy = 0.368\nsamples = 15\nvalue = [[13, 2]\n[15, 0]\n[15, 0]\n[12, 3]\n[5, 10]\n[15, 0]]"] ;
466 -> 468 ;
469 [label="entropy = 0.0\nsamples = 10\nvalue = [[10, 0]\n[10, 0]\n[10, 0]\n[10, 0]\n[0, 10]\n[10, 0]]"] ;
468 -> 469 ;
470 [label="X[514] <= -0.135\nentropy = 0.324\nsamples = 5\nvalue = [[3, 2]\n[5, 0]\n[5, 0]\n[2, 3]\n[5, 0]\n[5, 0]]"] ;
468 -> 470 ;
471 [label="entropy = 0.0\nsamples = 3\nvalue = [[3, 0]\n[3, 0]\n[3, 0]\n[0, 3]\n[3, 0]\n[3, 0]]"] ;
470 -> 471 ;
472 [label="entropy = 0.0\nsamples = 2\nvalue = [[0, 2]\n[2, 0]\n[2, 0]\n[2, 0]\n[2, 0]\n[2, 0]]"] ;
470 -> 472 ;
473 [label="X[719] <= -0.22\nentropy = 0.274\nsamples = 43\nvalue = [[43, 0]\n[38, 5]\n[43, 0]\n[42, 1]\n[41, 2]\n[8, 35]]"] ;
465 -> 473 ;
474 [label="X[796] <= 0.051\nentropy = 0.485\nsamples = 10\nvalue = [[10, 0]\n[5, 5]\n[10, 0]\n[9, 1]\n[8, 2]\n[8, 2]]"] ;
473 -> 474 ;
475 [label="X[737] <= -0.278\nentropy = 0.217\nsamples = 6\nvalue = [[6, 0]\n[1, 5]\n[6, 0]\n[5, 1]\n[6, 0]\n[6, 0]]"] ;
474 -> 475 ;
476 [label="entropy = 0.0\nsamples = 5\nvalue = [[5, 0]\n[0, 5]\n[5, 0]\n[5, 0]\n[5, 0]\n[5, 0]]"] ;
475 -> 476 ;
477 [label="entropy = 0.0\nsamples = 1\nvalue = [[1, 0]\n[1, 0]\n[1, 0]\n[0, 1]\n[1, 0]\n[1, 0]]"] ;
475 -> 477 ;
478 [label="X[88] <= 1.213\nentropy = 0.333\nsamples = 4\nvalue = [[4, 0]\n[4, 0]\n[4, 0]\n[4, 0]\n[2, 2]\n[2, 2]]"] ;
474 -> 478 ;
479 [label="entropy = 0.0\nsamples = 2\nvalue = [[2, 0]\n[2, 0]\n[2, 0]\n[2, 0]\n[2, 0]\n[0, 2]]"] ;
478 -> 479 ;
480 [label="entropy = 0.0\nsamples = 2\nvalue = [[2, 0]\n[2, 0]\n[2, 0]\n[2, 0]\n[0, 2]\n[2, 0]]"] ;
478 -> 480 ;
481 [label="entropy = 0.0\nsamples = 33\nvalue = [[33, 0]\n[33, 0]\n[33, 0]\n[33, 0]\n[33, 0]\n[0, 33]]"] ;
473 -> 481 ;
482 [label="X[534] <= -0.507\nentropy = 0.098\nsamples = 3650\nvalue = [[3631, 19]\n[3638, 12]\n[3627, 23]\n[3577, 73]\n[3623, 27]\n[154, 3496]]"] ;
4 -> 482 ;
483 [label="X[532] <= -0.732\nentropy = 0.037\nsamples = 3444\nvalue = [[3436, 8]\n[3442, 2]\n[3438, 6]\n[3432, 12]\n[3429, 15]\n[43, 3401]]"] ;
482 -> 483 ;
484 [label="X[724] <= 0.767\nentropy = 0.589\nsamples = 55\nvalue = [[47, 8]\n[54, 1]\n[49, 6]\n[48, 7]\n[40, 15]\n[37, 18]]"] ;
483 -> 484 ;
485 [label="X[1] <= -1.195\nentropy = 0.432\nsamples = 31\nvalue = [[30, 1]\n[31, 0]\n[26, 5]\n[24, 7]\n[31, 0]\n[13, 18]]"] ;
484 -> 485 ;
486 [label="entropy = 0.0\nsamples = 7\nvalue = [[7, 0]\n[7, 0]\n[7, 0]\n[0, 7]\n[7, 0]\n[7, 0]]"] ;
485 -> 486 ;
487 [label="X[638] <= 0.204\nentropy = 0.3\nsamples = 24\nvalue = [[23, 1]\n[24, 0]\n[19, 5]\n[24, 0]\n[24, 0]\n[6, 18]]"] ;
485 -> 487 ;
488 [label="X[746] <= -1.161\nentropy = 0.099\nsamples = 19\nvalue = [[18, 1]\n[19, 0]\n[19, 0]\n[19, 0]\n[19, 0]\n[1, 18]]"] ;
487 -> 488 ;
489 [label="entropy = 0.0\nsamples = 1\nvalue = [[0, 1]\n[1, 0]\n[1, 0]\n[1, 0]\n[1, 0]\n[1, 0]]"] ;
488 -> 489 ;
490 [label="entropy = 0.0\nsamples = 18\nvalue = [[18, 0]\n[18, 0]\n[18, 0]\n[18, 0]\n[18, 0]\n[0, 18]]"] ;
488 -> 490 ;
491 [label="entropy = 0.0\nsamples = 5\nvalue = [[5, 0]\n[5, 0]\n[0, 5]\n[5, 0]\n[5, 0]\n[5, 0]]"] ;
487 -> 491 ;
492 [label="X[849] <= 0.992\nentropy = 0.388\nsamples = 24\nvalue = [[17, 7]\n[23, 1]\n[23, 1]\n[24, 0]\n[9, 15]\n[24, 0]]"] ;
484 -> 492 ;
493 [label="entropy = 0.0\nsamples = 15\nvalue = [[15, 0]\n[15, 0]\n[15, 0]\n[15, 0]\n[0, 15]\n[15, 0]]"] ;
492 -> 493 ;
494 [label="X[248] <= -0.578\nentropy = 0.295\nsamples = 9\nvalue = [[2, 7]\n[8, 1]\n[8, 1]\n[9, 0]\n[9, 0]\n[9, 0]]"] ;
492 -> 494 ;
495 [label="X[15] <= 0.021\nentropy = 0.333\nsamples = 2\nvalue = [[2, 0]\n[1, 1]\n[1, 1]\n[2, 0]\n[2, 0]\n[2, 0]]"] ;
494 -> 495 ;
496 [label="entropy = 0.0\nsamples = 1\nvalue = [[1, 0]\n[0, 1]\n[1, 0]\n[1, 0]\n[1, 0]\n[1, 0]]"] ;
495 -> 496 ;
497 [label="entropy = 0.0\nsamples = 1\nvalue = [[1, 0]\n[1, 0]\n[0, 1]\n[1, 0]\n[1, 0]\n[1, 0]]"] ;
495 -> 497 ;
498 [label="entropy = 0.0\nsamples = 7\nvalue = [[0, 7]\n[7, 0]\n[7, 0]\n[7, 0]\n[7, 0]\n[7, 0]]"] ;
494 -> 498 ;
499 [label="X[238] <= -0.441\nentropy = 0.006\nsamples = 3389\nvalue = [[3389, 0]\n[3388, 1]\n[3389, 0]\n[3384, 5]\n[3389, 0]\n[6, 3383]]"] ;
483 -> 499 ;
500 [label="entropy = 0.0\nsamples = 2602\nvalue = [[2602, 0]\n[2602, 0]\n[2602, 0]\n[2602, 0]\n[2602, 0]\n[0, 2602]]"] ;
499 -> 500 ;
501 [label="X[946] <= -0.785\nentropy = 0.022\nsamples = 787\nvalue = [[787, 0]\n[786, 1]\n[787, 0]\n[782, 5]\n[787, 0]\n[6, 781]]"] ;
499 -> 501 ;
502 [label="entropy = 0.0\nsamples = 1\nvalue = [[1, 0]\n[0, 1]\n[1, 0]\n[1, 0]\n[1, 0]\n[1, 0]]"] ;
501 -> 502 ;
503 [label="X[238] <= -0.428\nentropy = 0.019\nsamples = 786\nvalue = [[786, 0]\n[786, 0]\n[786, 0]\n[781, 5]\n[786, 0]\n[5, 781]]"] ;
501 -> 503 ;
504 [label="X[238] <= -0.441\nentropy = 0.057\nsamples = 197\nvalue = [[197, 0]\n[197, 0]\n[197, 0]\n[192, 5]\n[197, 0]\n[5, 192]]"] ;
503 -> 504 ;
505 [label="entropy = 0.0\nsamples = 1\nvalue = [[1, 0]\n[1, 0]\n[1, 0]\n[0, 1]\n[1, 0]\n[1, 0]]"] ;
504 -> 505 ;
506 [label="X[237] <= -0.016\nentropy = 0.048\nsamples = 196\nvalue = [[196, 0]\n[196, 0]\n[196, 0]\n[192, 4]\n[196, 0]\n[4, 192]]"] ;
504 -> 506 ;
507 [label="X[238] <= -0.439\nentropy = 0.017\nsamples = 174\nvalue = [[174, 0]\n[174, 0]\n[174, 0]\n[173, 1]\n[174, 0]\n[1, 173]]"] ;
506 -> 507 ;
508 [label="X[238] <= -0.439\nentropy = 0.076\nsamples = 27\nvalue = [[27, 0]\n[27, 0]\n[27, 0]\n[26, 1]\n[27, 0]\n[1, 26]]"] ;
507 -> 508 ;
509 [label="entropy = 0.0\nsamples = 26\nvalue = [[26, 0]\n[26, 0]\n[26, 0]\n[26, 0]\n[26, 0]\n[0, 26]]"] ;
508 -> 509 ;
510 [label="entropy = 0.0\nsamples = 1\nvalue = [[1, 0]\n[1, 0]\n[1, 0]\n[0, 1]\n[1, 0]\n[1, 0]]"] ;
508 -> 510 ;
511 [label="entropy = 0.0\nsamples = 147\nvalue = [[147, 0]\n[147, 0]\n[147, 0]\n[147, 0]\n[147, 0]\n[0, 147]]"] ;
507 -> 511 ;
512 [label="X[237] <= -0.013\nentropy = 0.192\nsamples = 22\nvalue = [[22, 0]\n[22, 0]\n[22, 0]\n[19, 3]\n[22, 0]\n[3, 19]]"] ;
506 -> 512 ;
513 [label="X[236] <= 0.33\nentropy = 0.306\nsamples = 9\nvalue = [[9, 0]\n[9, 0]\n[9, 0]\n[6, 3]\n[9, 0]\n[3, 6]]"] ;
512 -> 513 ;
514 [label="entropy = 0.0\nsamples = 5\nvalue = [[5, 0]\n[5, 0]\n[5, 0]\n[5, 0]\n[5, 0]\n[0, 5]]"] ;
513 -> 514 ;
515 [label="X[240] <= -1.555\nentropy = 0.27\nsamples = 4\nvalue = [[4, 0]\n[4, 0]\n[4, 0]\n[1, 3]\n[4, 0]\n[3, 1]]"] ;
513 -> 515 ;
516 [label="entropy = 0.0\nsamples = 1\nvalue = [[1, 0]\n[1, 0]\n[1, 0]\n[1, 0]\n[1, 0]\n[0, 1]]"] ;
515 -> 516 ;
517 [label="entropy = 0.0\nsamples = 3\nvalue = [[3, 0]\n[3, 0]\n[3, 0]\n[0, 3]\n[3, 0]\n[3, 0]]"] ;
515 -> 517 ;
518 [label="entropy = 0.0\nsamples = 13\nvalue = [[13, 0]\n[13, 0]\n[13, 0]\n[13, 0]\n[13, 0]\n[0, 13]]"] ;
512 -> 518 ;
519 [label="entropy = 0.0\nsamples = 589\nvalue = [[589, 0]\n[589, 0]\n[589, 0]\n[589, 0]\n[589, 0]\n[0, 589]]"] ;
503 -> 519 ;
520 [label="X[794] <= 0.958\nentropy = 0.531\nsamples = 206\nvalue = [[195, 11]\n[196, 10]\n[189, 17]\n[145, 61]\n[194, 12]\n[111, 95]]"] ;
482 -> 520 ;
521 [label="X[1] <= 0.672\nentropy = 0.575\nsamples = 148\nvalue = [[137, 11]\n[138, 10]\n[131, 17]\n[87, 61]\n[136, 12]\n[111, 37]]"] ;
520 -> 521 ;
522 [label="X[548] <= 0.181\nentropy = 0.541\nsamples = 117\nvalue = [[107, 10]\n[108, 9]\n[100, 17]\n[56, 61]\n[105, 12]\n[109, 8]]"] ;
521 -> 522 ;
523 [label="X[142] <= -0.231\nentropy = 0.384\nsamples = 79\nvalue = [[74, 5]\n[72, 7]\n[79, 0]\n[22, 57]\n[73, 6]\n[75, 4]]"] ;
522 -> 523 ;
524 [label="X[790] <= 0.329\nentropy = 0.579\nsamples = 19\nvalue = [[16, 3]\n[13, 6]\n[19, 0]\n[16, 3]\n[14, 5]\n[17, 2]]"] ;
523 -> 524 ;
525 [label="entropy = 0.0\nsamples = 5\nvalue = [[5, 0]\n[5, 0]\n[5, 0]\n[5, 0]\n[0, 5]\n[5, 0]]"] ;
524 -> 525 ;
526 [label="X[652] <= 0.444\nentropy = 0.513\nsamples = 14\nvalue = [[11, 3]\n[8, 6]\n[14, 0]\n[11, 3]\n[14, 0]\n[12, 2]]"] ;
524 -> 526 ;
527 [label="entropy = 0.0\nsamples = 6\nvalue = [[6, 0]\n[0, 6]\n[6, 0]\n[6, 0]\n[6, 0]\n[6, 0]]"] ;
526 -> 527 ;
528 [label="X[470] <= 0.296\nentropy = 0.453\nsamples = 8\nvalue = [[5, 3]\n[8, 0]\n[8, 0]\n[5, 3]\n[8, 0]\n[6, 2]]"] ;
526 -> 528 ;
529 [label="X[660] <= 0.399\nentropy = 0.324\nsamples = 5\nvalue = [[5, 0]\n[5, 0]\n[5, 0]\n[2, 3]\n[5, 0]\n[3, 2]]"] ;
528 -> 529 ;
530 [label="entropy = 0.0\nsamples = 2\nvalue = [[2, 0]\n[2, 0]\n[2, 0]\n[2, 0]\n[2, 0]\n[0, 2]]"] ;
529 -> 530 ;
531 [label="entropy = 0.0\nsamples = 3\nvalue = [[3, 0]\n[3, 0]\n[3, 0]\n[0, 3]\n[3, 0]\n[3, 0]]"] ;
529 -> 531 ;
532 [label="entropy = 0.0\nsamples = 3\nvalue = [[0, 3]\n[3, 0]\n[3, 0]\n[3, 0]\n[3, 0]\n[3, 0]]"] ;
528 -> 532 ;
533 [label="X[1020] <= 0.169\nentropy = 0.189\nsamples = 60\nvalue = [[58, 2]\n[59, 1]\n[60, 0]\n[6, 54]\n[59, 1]\n[58, 2]]"] ;
523 -> 533 ;
534 [label="entropy = 0.0\nsamples = 47\nvalue = [[47, 0]\n[47, 0]\n[47, 0]\n[0, 47]\n[47, 0]\n[47, 0]]"] ;
533 -> 534 ;
535 [label="X[661] <= 0.113\nentropy = 0.503\nsamples = 13\nvalue = [[11, 2]\n[12, 1]\n[13, 0]\n[6, 7]\n[12, 1]\n[11, 2]]"] ;
533 -> 535 ;
536 [label="entropy = 0.0\nsamples = 7\nvalue = [[7, 0]\n[7, 0]\n[7, 0]\n[0, 7]\n[7, 0]\n[7, 0]]"] ;
535 -> 536 ;
537 [label="X[703] <= -0.11\nentropy = 0.523\nsamples = 6\nvalue = [[4, 2]\n[5, 1]\n[6, 0]\n[6, 0]\n[5, 1]\n[4, 2]]"] ;
535 -> 537 ;
538 [label="entropy = 0.0\nsamples = 2\nvalue = [[2, 0]\n[2, 0]\n[2, 0]\n[2, 0]\n[2, 0]\n[0, 2]]"] ;
537 -> 538 ;
539 [label="X[176] <= 0.253\nentropy = 0.437\nsamples = 4\nvalue = [[2, 2]\n[3, 1]\n[4, 0]\n[4, 0]\n[3, 1]\n[4, 0]]"] ;
537 -> 539 ;
540 [label="X[576] <= 0.055\nentropy = 0.333\nsamples = 2\nvalue = [[2, 0]\n[1, 1]\n[2, 0]\n[2, 0]\n[1, 1]\n[2, 0]]"] ;
539 -> 540 ;
541 [label="entropy = 0.0\nsamples = 1\nvalue = [[1, 0]\n[1, 0]\n[1, 0]\n[1, 0]\n[0, 1]\n[1, 0]]"] ;
540 -> 541 ;
542 [label="entropy = 0.0\nsamples = 1\nvalue = [[1, 0]\n[0, 1]\n[1, 0]\n[1, 0]\n[1, 0]\n[1, 0]]"] ;
540 -> 542 ;
543 [label="entropy = 0.0\nsamples = 2\nvalue = [[0, 2]\n[2, 0]\n[2, 0]\n[2, 0]\n[2, 0]\n[2, 0]]"] ;
539 -> 543 ;
544 [label="X[227] <= 0.246\nentropy = 0.575\nsamples = 38\nvalue = [[33, 5]\n[36, 2]\n[21, 17]\n[34, 4]\n[32, 6]\n[34, 4]]"] ;
522 -> 544 ;
545 [label="X[58] <= -0.014\nentropy = 0.582\nsamples = 20\nvalue = [[15, 5]\n[20, 0]\n[18, 2]\n[16, 4]\n[14, 6]\n[17, 3]]"] ;
544 -> 545 ;
546 [label="entropy = 0.0\nsamples = 6\nvalue = [[6, 0]\n[6, 0]\n[6, 0]\n[6, 0]\n[0, 6]\n[6, 0]]"] ;
545 -> 546 ;
547 [label="X[328] <= -0.046\nentropy = 0.524\nsamples = 14\nvalue = [[9, 5]\n[14, 0]\n[12, 2]\n[10, 4]\n[14, 0]\n[11, 3]]"] ;
545 -> 547 ;
548 [label="entropy = 0.0\nsamples = 5\nvalue = [[0, 5]\n[5, 0]\n[5, 0]\n[5, 0]\n[5, 0]\n[5, 0]]"] ;
547 -> 548 ;
549 [label="X[562] <= 0.147\nentropy = 0.446\nsamples = 9\nvalue = [[9, 0]\n[9, 0]\n[7, 2]\n[5, 4]\n[9, 0]\n[6, 3]]"] ;
547 -> 549 ;
550 [label="entropy = 0.0\nsamples = 4\nvalue = [[4, 0]\n[4, 0]\n[4, 0]\n[0, 4]\n[4, 0]\n[4, 0]]"] ;
549 -> 550 ;
551 [label="X[813] <= -0.576\nentropy = 0.324\nsamples = 5\nvalue = [[5, 0]\n[5, 0]\n[3, 2]\n[5, 0]\n[5, 0]\n[2, 3]]"] ;
549 -> 551 ;
552 [label="entropy = 0.0\nsamples = 3\nvalue = [[3, 0]\n[3, 0]\n[3, 0]\n[3, 0]\n[3, 0]\n[0, 3]]"] ;
551 -> 552 ;
553 [label="entropy = 0.0\nsamples = 2\nvalue = [[2, 0]\n[2, 0]\n[0, 2]\n[2, 0]\n[2, 0]\n[2, 0]]"] ;
551 -> 553 ;
554 [label="X[578] <= 0.019\nentropy = 0.244\nsamples = 18\nvalue = [[18, 0]\n[16, 2]\n[3, 15]\n[18, 0]\n[18, 0]\n[17, 1]]"] ;
544 -> 554 ;
555 [label="X[645] <= 0.449\nentropy = 0.437\nsamples = 4\nvalue = [[4, 0]\n[2, 2]\n[3, 1]\n[4, 0]\n[4, 0]\n[3, 1]]"] ;
554 -> 555 ;
556 [label="entropy = 0.0\nsamples = 2\nvalue = [[2, 0]\n[0, 2]\n[2, 0]\n[2, 0]\n[2, 0]\n[2, 0]]"] ;
555 -> 556 ;
557 [label="X[308] <= 1.144\nentropy = 0.333\nsamples = 2\nvalue = [[2, 0]\n[2, 0]\n[1, 1]\n[2, 0]\n[2, 0]\n[1, 1]]"] ;
555 -> 557 ;
558 [label="entropy = 0.0\nsamples = 1\nvalue = [[1, 0]\n[1, 0]\n[1, 0]\n[1, 0]\n[1, 0]\n[0, 1]]"] ;
557 -> 558 ;
559 [label="entropy = 0.0\nsamples = 1\nvalue = [[1, 0]\n[1, 0]\n[0, 1]\n[1, 0]\n[1, 0]\n[1, 0]]"] ;
557 -> 559 ;
560 [label="entropy = 0.0\nsamples = 14\nvalue = [[14, 0]\n[14, 0]\n[0, 14]\n[14, 0]\n[14, 0]\n[14, 0]]"] ;
554 -> 560 ;
561 [label="X[74] <= 0.164\nentropy = 0.126\nsamples = 31\nvalue = [[30, 1]\n[30, 1]\n[31, 0]\n[31, 0]\n[31, 0]\n[2, 29]]"] ;
521 -> 561 ;
562 [label="entropy = 0.0\nsamples = 29\nvalue = [[29, 0]\n[29, 0]\n[29, 0]\n[29, 0]\n[29, 0]\n[0, 29]]"] ;
561 -> 562 ;
563 [label="X[64] <= 0.135\nentropy = 0.333\nsamples = 2\nvalue = [[1, 1]\n[1, 1]\n[2, 0]\n[2, 0]\n[2, 0]\n[2, 0]]"] ;
561 -> 563 ;
564 [label="entropy = 0.0\nsamples = 1\nvalue = [[1, 0]\n[0, 1]\n[1, 0]\n[1, 0]\n[1, 0]\n[1, 0]]"] ;
563 -> 564 ;
565 [label="entropy = 0.0\nsamples = 1\nvalue = [[0, 1]\n[1, 0]\n[1, 0]\n[1, 0]\n[1, 0]\n[1, 0]]"] ;
563 -> 565 ;
566 [label="entropy = 0.0\nsamples = 58\nvalue = [[58, 0]\n[58, 0]\n[58, 0]\n[58, 0]\n[58, 0]\n[0, 58]]"] ;
520 -> 566 ;
567 [label="X[656] <= -0.514\nentropy = 0.632\nsamples = 7588\nvalue = [[5590, 1998]\n[6257, 1331]\n[7056, 532]\n[6235, 1353]\n[6490, 1098]\n[6312, 1276]]"] ;
3 -> 567 ;
568 [label="X[777] <= 0.268\nentropy = 0.153\nsamples = 1394\nvalue = [[106, 1288]\n[1387, 7]\n[1391, 3]\n[1368, 26]\n[1375, 19]\n[1343, 51]]"] ;
567 -> 568 ;
569 [label="X[4] <= 0.341\nentropy = 0.525\nsamples = 102\nvalue = [[98, 4]\n[96, 6]\n[100, 2]\n[77, 25]\n[85, 17]\n[54, 48]]"] ;
568 -> 569 ;
570 [label="X[843] <= -0.051\nentropy = 0.448\nsamples = 85\nvalue = [[81, 4]\n[79, 6]\n[84, 1]\n[60, 25]\n[84, 1]\n[37, 48]]"] ;
569 -> 570 ;
571 [label="X[1] <= 0.383\nentropy = 0.486\nsamples = 44\nvalue = [[40, 4]\n[41, 3]\n[43, 1]\n[20, 24]\n[43, 1]\n[33, 11]]"] ;
570 -> 571 ;
572 [label="X[142] <= 0.192\nentropy = 0.421\nsamples = 35\nvalue = [[31, 4]\n[32, 3]\n[34, 1]\n[11, 24]\n[34, 1]\n[33, 2]]"] ;
571 -> 572 ;
573 [label="X[173] <= -2.916\nentropy = 0.148\nsamples = 25\nvalue = [[25, 0]\n[25, 0]\n[24, 1]\n[2, 23]\n[24, 1]\n[25, 0]]"] ;
572 -> 573 ;
574 [label="X[43] <= -1.466\nentropy = 0.333\nsamples = 2\nvalue = [[2, 0]\n[2, 0]\n[1, 1]\n[2, 0]\n[1, 1]\n[2, 0]]"] ;
573 -> 574 ;
575 [label="entropy = 0.0\nsamples = 1\nvalue = [[1, 0]\n[1, 0]\n[0, 1]\n[1, 0]\n[1, 0]\n[1, 0]]"] ;
574 -> 575 ;
576 [label="entropy = 0.0\nsamples = 1\nvalue = [[1, 0]\n[1, 0]\n[1, 0]\n[1, 0]\n[0, 1]\n[1, 0]]"] ;
574 -> 576 ;
577 [label="entropy = 0.0\nsamples = 23\nvalue = [[23, 0]\n[23, 0]\n[23, 0]\n[0, 23]\n[23, 0]\n[23, 0]]"] ;
573 -> 577 ;
578 [label="X[800] <= -0.772\nentropy = 0.507\nsamples = 10\nvalue = [[6, 4]\n[7, 3]\n[10, 0]\n[9, 1]\n[10, 0]\n[8, 2]]"] ;
572 -> 578 ;
579 [label="X[563] <= 0.53\nentropy = 0.428\nsamples = 6\nvalue = [[6, 0]\n[3, 3]\n[6, 0]\n[5, 1]\n[6, 0]\n[4, 2]]"] ;
578 -> 579 ;
580 [label="entropy = 0.0\nsamples = 3\nvalue = [[3, 0]\n[0, 3]\n[3, 0]\n[3, 0]\n[3, 0]\n[3, 0]]"] ;
579 -> 580 ;
581 [label="X[891] <= -0.525\nentropy = 0.306\nsamples = 3\nvalue = [[3, 0]\n[3, 0]\n[3, 0]\n[2, 1]\n[3, 0]\n[1, 2]]"] ;
579 -> 581 ;
582 [label="entropy = 0.0\nsamples = 2\nvalue = [[2, 0]\n[2, 0]\n[2, 0]\n[2, 0]\n[2, 0]\n[0, 2]]"] ;
581 -> 582 ;
583 [label="entropy = 0.0\nsamples = 1\nvalue = [[1, 0]\n[1, 0]\n[1, 0]\n[0, 1]\n[1, 0]\n[1, 0]]"] ;
581 -> 583 ;
584 [label="entropy = 0.0\nsamples = 4\nvalue = [[0, 4]\n[4, 0]\n[4, 0]\n[4, 0]\n[4, 0]\n[4, 0]]"] ;
578 -> 584 ;
585 [label="entropy = 0.0\nsamples = 9\nvalue = [[9, 0]\n[9, 0]\n[9, 0]\n[9, 0]\n[9, 0]\n[0, 9]]"] ;
571 -> 585 ;
586 [label="X[971] <= -0.657\nentropy = 0.167\nsamples = 41\nvalue = [[41, 0]\n[38, 3]\n[41, 0]\n[40, 1]\n[41, 0]\n[4, 37]]"] ;
570 -> 586 ;
587 [label="X[644] <= -0.594\nentropy = 0.428\nsamples = 6\nvalue = [[6, 0]\n[3, 3]\n[6, 0]\n[5, 1]\n[6, 0]\n[4, 2]]"] ;
586 -> 587 ;
588 [label="entropy = 0.0\nsamples = 3\nvalue = [[3, 0]\n[0, 3]\n[3, 0]\n[3, 0]\n[3, 0]\n[3, 0]]"] ;
587 -> 588 ;
589 [label="X[405] <= -0.029\nentropy = 0.306\nsamples = 3\nvalue = [[3, 0]\n[3, 0]\n[3, 0]\n[2, 1]\n[3, 0]\n[1, 2]]"] ;
587 -> 589 ;
590 [label="entropy = 0.0\nsamples = 1\nvalue = [[1, 0]\n[1, 0]\n[1, 0]\n[0, 1]\n[1, 0]\n[1, 0]]"] ;
589 -> 590 ;
591 [label="entropy = 0.0\nsamples = 2\nvalue = [[2, 0]\n[2, 0]\n[2, 0]\n[2, 0]\n[2, 0]\n[0, 2]]"] ;
589 -> 591 ;
592 [label="entropy = 0.0\nsamples = 35\nvalue = [[35, 0]\n[35, 0]\n[35, 0]\n[35, 0]\n[35, 0]\n[0, 35]]"] ;
586 -> 592 ;
593 [label="X[311] <= 1.152\nentropy = 0.108\nsamples = 17\nvalue = [[17, 0]\n[17, 0]\n[16, 1]\n[17, 0]\n[1, 16]\n[17, 0]]"] ;
569 -> 593 ;
594 [label="entropy = 0.0\nsamples = 16\nvalue = [[16, 0]\n[16, 0]\n[16, 0]\n[16, 0]\n[0, 16]\n[16, 0]]"] ;
593 -> 594 ;
595 [label="entropy = 0.0\nsamples = 1\nvalue = [[1, 0]\n[1, 0]\n[0, 1]\n[1, 0]\n[1, 0]\n[1, 0]]"] ;
593 -> 595 ;
596 [label="X[830] <= 0.119\nentropy = 0.02\nsamples = 1292\nvalue = [[8, 1284]\n[1291, 1]\n[1291, 1]\n[1291, 1]\n[1290, 2]\n[1289, 3]]"] ;
568 -> 596 ;
597 [label="entropy = 0.0\nsamples = 1284\nvalue = [[0, 1284]\n[1284, 0]\n[1284, 0]\n[1284, 0]\n[1284, 0]\n[1284, 0]]"] ;
596 -> 597 ;
598 [label="X[925] <= 1.125\nentropy = 0.566\nsamples = 8\nvalue = [[8, 0]\n[7, 1]\n[7, 1]\n[7, 1]\n[6, 2]\n[5, 3]]"] ;
596 -> 598 ;
599 [label="entropy = 0.0\nsamples = 3\nvalue = [[3, 0]\n[3, 0]\n[3, 0]\n[3, 0]\n[3, 0]\n[0, 3]]"] ;
598 -> 599 ;
600 [label="X[115] <= 0.611\nentropy = 0.523\nsamples = 5\nvalue = [[5, 0]\n[4, 1]\n[4, 1]\n[4, 1]\n[3, 2]\n[5, 0]]"] ;
598 -> 600 ;
601 [label="X[718] <= 0.538\nentropy = 0.459\nsamples = 3\nvalue = [[3, 0]\n[2, 1]\n[2, 1]\n[2, 1]\n[3, 0]\n[3, 0]]"] ;
600 -> 601 ;
602 [label="entropy = 0.0\nsamples = 1\nvalue = [[1, 0]\n[0, 1]\n[1, 0]\n[1, 0]\n[1, 0]\n[1, 0]]"] ;
601 -> 602 ;
603 [label="X[464] <= -0.416\nentropy = 0.333\nsamples = 2\nvalue = [[2, 0]\n[2, 0]\n[1, 1]\n[1, 1]\n[2, 0]\n[2, 0]]"] ;
601 -> 603 ;
604 [label="entropy = 0.0\nsamples = 1\nvalue = [[1, 0]\n[1, 0]\n[1, 0]\n[0, 1]\n[1, 0]\n[1, 0]]"] ;
603 -> 604 ;
605 [label="entropy = 0.0\nsamples = 1\nvalue = [[1, 0]\n[1, 0]\n[0, 1]\n[1, 0]\n[1, 0]\n[1, 0]]"] ;
603 -> 605 ;
606 [label="entropy = 0.0\nsamples = 2\nvalue = [[2, 0]\n[2, 0]\n[2, 0]\n[2, 0]\n[0, 2]\n[2, 0]]"] ;
600 -> 606 ;
607 [label="X[1022] <= -1.564\nentropy = 0.636\nsamples = 6194\nvalue = [[5484, 710]\n[4870, 1324]\n[5665, 529]\n[4867, 1327]\n[5115, 1079]\n[4969, 1225]]"] ;
567 -> 607 ;
608 [label="X[493] <= 0.949\nentropy = 0.355\nsamples = 1125\nvalue = [[1101, 24]\n[1110, 15]\n[1085, 40]\n[966, 159]\n[286, 839]\n[1077, 48]]"] ;
607 -> 608 ;
609 [label="X[856] <= 1.151\nentropy = 0.545\nsamples = 304\nvalue = [[284, 20]\n[291, 13]\n[277, 27]\n[159, 145]\n[234, 70]\n[275, 29]]"] ;
608 -> 609 ;
610 [label="X[23] <= -0.627\nentropy = 0.522\nsamples = 256\nvalue = [[236, 20]\n[243, 13]\n[229, 27]\n[114, 142]\n[231, 25]\n[227, 29]]"] ;
609 -> 610 ;
611 [label="X[230] <= -0.004\nentropy = 0.3\nsamples = 159\nvalue = [[155, 4]\n[153, 6]\n[152, 7]\n[30, 129]\n[147, 12]\n[158, 1]]"] ;
610 -> 611 ;
612 [label="X[702] <= 0.882\nentropy = 0.131\nsamples = 125\nvalue = [[124, 1]\n[125, 0]\n[125, 0]\n[9, 116]\n[117, 8]\n[125, 0]]"] ;
611 -> 612 ;
613 [label="X[125] <= 0.008\nentropy = 0.045\nsamples = 116\nvalue = [[115, 1]\n[116, 0]\n[116, 0]\n[2, 114]\n[115, 1]\n[116, 0]]"] ;
612 -> 613 ;
614 [label="entropy = 0.0\nsamples = 114\nvalue = [[114, 0]\n[114, 0]\n[114, 0]\n[0, 114]\n[114, 0]\n[114, 0]]"] ;
613 -> 614 ;
615 [label="X[98] <= 0.072\nentropy = 0.333\nsamples = 2\nvalue = [[1, 1]\n[2, 0]\n[2, 0]\n[2, 0]\n[1, 1]\n[2, 0]]"] ;
613 -> 615 ;
616 [label="entropy = 0.0\nsamples = 1\nvalue = [[0, 1]\n[1, 0]\n[1, 0]\n[1, 0]\n[1, 0]\n[1, 0]]"] ;
615 -> 616 ;
617 [label="entropy = 0.0\nsamples = 1\nvalue = [[1, 0]\n[1, 0]\n[1, 0]\n[1, 0]\n[0, 1]\n[1, 0]]"] ;
615 -> 617 ;
618 [label="X[909] <= 1.245\nentropy = 0.255\nsamples = 9\nvalue = [[9, 0]\n[9, 0]\n[9, 0]\n[7, 2]\n[2, 7]\n[9, 0]]"] ;
612 -> 618 ;
619 [label="entropy = 0.0\nsamples = 7\nvalue = [[7, 0]\n[7, 0]\n[7, 0]\n[7, 0]\n[0, 7]\n[7, 0]]"] ;
618 -> 619 ;
620 [label="entropy = 0.0\nsamples = 2\nvalue = [[2, 0]\n[2, 0]\n[2, 0]\n[0, 2]\n[2, 0]\n[2, 0]]"] ;
618 -> 620 ;
621 [label="X[801] <= 0.239\nentropy = 0.585\nsamples = 34\nvalue = [[31, 3]\n[28, 6]\n[27, 7]\n[21, 13]\n[30, 4]\n[33, 1]]"] ;
611 -> 621 ;
622 [label="X[758] <= -1.555\nentropy = 0.334\nsamples = 18\nvalue = [[18, 0]\n[18, 0]\n[16, 2]\n[5, 13]\n[15, 3]\n[18, 0]]"] ;
621 -> 622 ;
623 [label="X[939] <= -0.589\nentropy = 0.324\nsamples = 5\nvalue = [[5, 0]\n[5, 0]\n[3, 2]\n[5, 0]\n[2, 3]\n[5, 0]]"] ;
622 -> 623 ;
624 [label="entropy = 0.0\nsamples = 2\nvalue = [[2, 0]\n[2, 0]\n[0, 2]\n[2, 0]\n[2, 0]\n[2, 0]]"] ;
623 -> 624 ;
625 [label="entropy = 0.0\nsamples = 3\nvalue = [[3, 0]\n[3, 0]\n[3, 0]\n[3, 0]\n[0, 3]\n[3, 0]]"] ;
623 -> 625 ;
626 [label="entropy = 0.0\nsamples = 13\nvalue = [[13, 0]\n[13, 0]\n[13, 0]\n[0, 13]\n[13, 0]\n[13, 0]]"] ;
622 -> 626 ;
627 [label="X[496] <= 0.246\nentropy = 0.537\nsamples = 16\nvalue = [[13, 3]\n[10, 6]\n[11, 5]\n[16, 0]\n[15, 1]\n[15, 1]]"] ;
621 -> 627 ;
628 [label="X[400] <= 0.402\nentropy = 0.47\nsamples = 10\nvalue = [[7, 3]\n[10, 0]\n[5, 5]\n[10, 0]\n[9, 1]\n[9, 1]]"] ;
627 -> 628 ;
629 [label="X[942] <= 0.267\nentropy = 0.492\nsamples = 6\nvalue = [[3, 3]\n[6, 0]\n[5, 1]\n[6, 0]\n[5, 1]\n[5, 1]]"] ;
628 -> 629 ;
630 [label="X[602] <= 0.257\nentropy = 0.333\nsamples = 2\nvalue = [[2, 0]\n[2, 0]\n[1, 1]\n[2, 0]\n[2, 0]\n[1, 1]]"] ;
629 -> 630 ;
631 [label="entropy = 0.0\nsamples = 1\nvalue = [[1, 0]\n[1, 0]\n[0, 1]\n[1, 0]\n[1, 0]\n[1, 0]]"] ;
630 -> 631 ;
632 [label="entropy = 0.0\nsamples = 1\nvalue = [[1, 0]\n[1, 0]\n[1, 0]\n[1, 0]\n[1, 0]\n[0, 1]]"] ;
630 -> 632 ;
633 [label="X[710] <= 0.882\nentropy = 0.27\nsamples = 4\nvalue = [[1, 3]\n[4, 0]\n[4, 0]\n[4, 0]\n[3, 1]\n[4, 0]]"] ;
629 -> 633 ;
634 [label="entropy = 0.0\nsamples = 3\nvalue = [[0, 3]\n[3, 0]\n[3, 0]\n[3, 0]\n[3, 0]\n[3, 0]]"] ;
633 -> 634 ;
635 [label="entropy = 0.0\nsamples = 1\nvalue = [[1, 0]\n[1, 0]\n[1, 0]\n[1, 0]\n[0, 1]\n[1, 0]]"] ;
633 -> 635 ;
636 [label="entropy = 0.0\nsamples = 4\nvalue = [[4, 0]\n[4, 0]\n[0, 4]\n[4, 0]\n[4, 0]\n[4, 0]]"] ;
628 -> 636 ;
637 [label="entropy = 0.0\nsamples = 6\nvalue = [[6, 0]\n[0, 6]\n[6, 0]\n[6, 0]\n[6, 0]\n[6, 0]]"] ;
627 -> 637 ;
638 [label="X[1003] <= -0.359\nentropy = 0.626\nsamples = 97\nvalue = [[81, 16]\n[90, 7]\n[77, 20]\n[84, 13]\n[84, 13]\n[69, 28]]"] ;
610 -> 638 ;
639 [label="X[286] <= 0.356\nentropy = 0.543\nsamples = 60\nvalue = [[44, 16]\n[55, 5]\n[59, 1]\n[51, 9]\n[57, 3]\n[34, 26]]"] ;
638 -> 639 ;
640 [label="X[148] <= -0.134\nentropy = 0.443\nsamples = 24\nvalue = [[11, 13]\n[24, 0]\n[24, 0]\n[17, 7]\n[21, 3]\n[23, 1]]"] ;
639 -> 640 ;
641 [label="entropy = 0.0\nsamples = 13\nvalue = [[0, 13]\n[13, 0]\n[13, 0]\n[13, 0]\n[13, 0]\n[13, 0]]"] ;
640 -> 641 ;
642 [label="X[115] <= -0.612\nentropy = 0.372\nsamples = 11\nvalue = [[11, 0]\n[11, 0]\n[11, 0]\n[4, 7]\n[8, 3]\n[10, 1]]"] ;
640 -> 642 ;
643 [label="X[507] <= -0.139\nentropy = 0.27\nsamples = 4\nvalue = [[4, 0]\n[4, 0]\n[4, 0]\n[4, 0]\n[1, 3]\n[3, 1]]"] ;
642 -> 643 ;
644 [label="entropy = 0.0\nsamples = 3\nvalue = [[3, 0]\n[3, 0]\n[3, 0]\n[3, 0]\n[0, 3]\n[3, 0]]"] ;
643 -> 644 ;
645 [label="entropy = 0.0\nsamples = 1\nvalue = [[1, 0]\n[1, 0]\n[1, 0]\n[1, 0]\n[1, 0]\n[0, 1]]"] ;
643 -> 645 ;
646 [label="entropy = 0.0\nsamples = 7\nvalue = [[7, 0]\n[7, 0]\n[7, 0]\n[0, 7]\n[7, 0]\n[7, 0]]"] ;
642 -> 646 ;
647 [label="X[106] <= 1.077\nentropy = 0.396\nsamples = 36\nvalue = [[33, 3]\n[31, 5]\n[35, 1]\n[34, 2]\n[36, 0]\n[11, 25]]"] ;
639 -> 647 ;
648 [label="X[417] <= -1.721\nentropy = 0.083\nsamples = 24\nvalue = [[23, 1]\n[24, 0]\n[24, 0]\n[24, 0]\n[24, 0]\n[1, 23]]"] ;
647 -> 648 ;
649 [label="entropy = 0.0\nsamples = 1\nvalue = [[0, 1]\n[1, 0]\n[1, 0]\n[1, 0]\n[1, 0]\n[1, 0]]"] ;
648 -> 649 ;
650 [label="entropy = 0.0\nsamples = 23\nvalue = [[23, 0]\n[23, 0]\n[23, 0]\n[23, 0]\n[23, 0]\n[0, 23]]"] ;
648 -> 650 ;
651 [label="X[302] <= 1.044\nentropy = 0.557\nsamples = 12\nvalue = [[10, 2]\n[7, 5]\n[11, 1]\n[10, 2]\n[12, 0]\n[10, 2]]"] ;
647 -> 651 ;
652 [label="entropy = 0.0\nsamples = 5\nvalue = [[5, 0]\n[0, 5]\n[5, 0]\n[5, 0]\n[5, 0]\n[5, 0]]"] ;
651 -> 652 ;
653 [label="X[521] <= 0.141\nentropy = 0.53\nsamples = 7\nvalue = [[5, 2]\n[7, 0]\n[6, 1]\n[5, 2]\n[7, 0]\n[5, 2]]"] ;
651 -> 653 ;
654 [label="entropy = 0.0\nsamples = 2\nvalue = [[0, 2]\n[2, 0]\n[2, 0]\n[2, 0]\n[2, 0]\n[2, 0]]"] ;
653 -> 654 ;
655 [label="X[594] <= 0.909\nentropy = 0.444\nsamples = 5\nvalue = [[5, 0]\n[5, 0]\n[4, 1]\n[3, 2]\n[5, 0]\n[3, 2]]"] ;
653 -> 655 ;
656 [label="X[107] <= 1.131\nentropy = 0.306\nsamples = 3\nvalue = [[3, 0]\n[3, 0]\n[2, 1]\n[1, 2]\n[3, 0]\n[3, 0]]"] ;
655 -> 656 ;
657 [label="entropy = 0.0\nsamples = 1\nvalue = [[1, 0]\n[1, 0]\n[0, 1]\n[1, 0]\n[1, 0]\n[1, 0]]"] ;
656 -> 657 ;
658 [label="entropy = 0.0\nsamples = 2\nvalue = [[2, 0]\n[2, 0]\n[2, 0]\n[0, 2]\n[2, 0]\n[2, 0]]"] ;
656 -> 658 ;
659 [label="entropy = 0.0\nsamples = 2\nvalue = [[2, 0]\n[2, 0]\n[2, 0]\n[2, 0]\n[2, 0]\n[0, 2]]"] ;
655 -> 659 ;
660 [label="X[236] <= 0.111\nentropy = 0.49\nsamples = 37\nvalue = [[37, 0]\n[35, 2]\n[18, 19]\n[33, 4]\n[27, 10]\n[35, 2]]"] ;
638 -> 660 ;
661 [label="X[120] <= -0.036\nentropy = 0.372\nsamples = 11\nvalue = [[11, 0]\n[11, 0]\n[11, 0]\n[8, 3]\n[4, 7]\n[10, 1]]"] ;
660 -> 661 ;
662 [label="entropy = 0.0\nsamples = 7\nvalue = [[7, 0]\n[7, 0]\n[7, 0]\n[7, 0]\n[0, 7]\n[7, 0]]"] ;
661 -> 662 ;
663 [label="X[483] <= -2.185\nentropy = 0.27\nsamples = 4\nvalue = [[4, 0]\n[4, 0]\n[4, 0]\n[1, 3]\n[4, 0]\n[3, 1]]"] ;
661 -> 663 ;
664 [label="entropy = 0.0\nsamples = 1\nvalue = [[1, 0]\n[1, 0]\n[1, 0]\n[1, 0]\n[1, 0]\n[0, 1]]"] ;
663 -> 664 ;
665 [label="entropy = 0.0\nsamples = 3\nvalue = [[3, 0]\n[3, 0]\n[3, 0]\n[0, 3]\n[3, 0]\n[3, 0]]"] ;
663 -> 665 ;
666 [label="X[418] <= 1.033\nentropy = 0.37\nsamples = 26\nvalue = [[26, 0]\n[24, 2]\n[7, 19]\n[25, 1]\n[23, 3]\n[25, 1]]"] ;
660 -> 666 ;
667 [label="entropy = 0.0\nsamples = 19\nvalue = [[19, 0]\n[19, 0]\n[0, 19]\n[19, 0]\n[19, 0]\n[19, 0]]"] ;
666 -> 667 ;
668 [label="X[869] <= 1.087\nentropy = 0.505\nsamples = 7\nvalue = [[7, 0]\n[5, 2]\n[7, 0]\n[6, 1]\n[4, 3]\n[6, 1]]"] ;
666 -> 668 ;
669 [label="X[422] <= 0.996\nentropy = 0.437\nsamples = 4\nvalue = [[4, 0]\n[2, 2]\n[4, 0]\n[3, 1]\n[4, 0]\n[3, 1]]"] ;
668 -> 669 ;
670 [label="entropy = 0.0\nsamples = 2\nvalue = [[2, 0]\n[0, 2]\n[2, 0]\n[2, 0]\n[2, 0]\n[2, 0]]"] ;
669 -> 670 ;
671 [label="X[589] <= 0.979\nentropy = 0.333\nsamples = 2\nvalue = [[2, 0]\n[2, 0]\n[2, 0]\n[1, 1]\n[2, 0]\n[1, 1]]"] ;
669 -> 671 ;
672 [label="entropy = 0.0\nsamples = 1\nvalue = [[1, 0]\n[1, 0]\n[1, 0]\n[1, 0]\n[1, 0]\n[0, 1]]"] ;
671 -> 672 ;
673 [label="entropy = 0.0\nsamples = 1\nvalue = [[1, 0]\n[1, 0]\n[1, 0]\n[0, 1]\n[1, 0]\n[1, 0]]"] ;
671 -> 673 ;
674 [label="entropy = 0.0\nsamples = 3\nvalue = [[3, 0]\n[3, 0]\n[3, 0]\n[3, 0]\n[0, 3]\n[3, 0]]"] ;
668 -> 674 ;
675 [label="X[591] <= 0.961\nentropy = 0.112\nsamples = 48\nvalue = [[48, 0]\n[48, 0]\n[48, 0]\n[45, 3]\n[3, 45]\n[48, 0]]"] ;
609 -> 675 ;
676 [label="entropy = 0.0\nsamples = 45\nvalue = [[45, 0]\n[45, 0]\n[45, 0]\n[45, 0]\n[0, 45]\n[45, 0]]"] ;
675 -> 676 ;
677 [label="entropy = 0.0\nsamples = 3\nvalue = [[3, 0]\n[3, 0]\n[3, 0]\n[0, 3]\n[3, 0]\n[3, 0]]"] ;
675 -> 677 ;
678 [label="X[0] <= -0.391\nentropy = 0.135\nsamples = 821\nvalue = [[817, 4]\n[819, 2]\n[808, 13]\n[807, 14]\n[52, 769]\n[802, 19]]"] ;
608 -> 678 ;
679 [label="X[3] <= -0.34\nentropy = 0.482\nsamples = 114\nvalue = [[110, 4]\n[112, 2]\n[101, 13]\n[104, 10]\n[47, 67]\n[96, 18]]"] ;
678 -> 679 ;
680 [label="X[153] <= 1.231\nentropy = 0.569\nsamples = 39\nvalue = [[36, 3]\n[38, 1]\n[26, 13]\n[29, 10]\n[37, 2]\n[29, 10]]"] ;
679 -> 680 ;
681 [label="X[462] <= 0.965\nentropy = 0.54\nsamples = 31\nvalue = [[28, 3]\n[30, 1]\n[18, 13]\n[21, 10]\n[29, 2]\n[29, 2]]"] ;
680 -> 681 ;
682 [label="X[968] <= -0.383\nentropy = 0.444\nsamples = 5\nvalue = [[5, 0]\n[4, 1]\n[5, 0]\n[5, 0]\n[3, 2]\n[3, 2]]"] ;
681 -> 682 ;
683 [label="X[111] <= -1.084\nentropy = 0.306\nsamples = 3\nvalue = [[3, 0]\n[2, 1]\n[3, 0]\n[3, 0]\n[3, 0]\n[1, 2]]"] ;
682 -> 683 ;
684 [label="entropy = 0.0\nsamples = 1\nvalue = [[1, 0]\n[0, 1]\n[1, 0]\n[1, 0]\n[1, 0]\n[1, 0]]"] ;
683 -> 684 ;
685 [label="entropy = 0.0\nsamples = 2\nvalue = [[2, 0]\n[2, 0]\n[2, 0]\n[2, 0]\n[2, 0]\n[0, 2]]"] ;
683 -> 685 ;
686 [label="entropy = 0.0\nsamples = 2\nvalue = [[2, 0]\n[2, 0]\n[2, 0]\n[2, 0]\n[0, 2]\n[2, 0]]"] ;
682 -> 686 ;
687 [label="X[640] <= 0.99\nentropy = 0.413\nsamples = 26\nvalue = [[23, 3]\n[26, 0]\n[13, 13]\n[16, 10]\n[26, 0]\n[26, 0]]"] ;
681 -> 687 ;
688 [label="X[463] <= 1.004\nentropy = 0.168\nsamples = 9\nvalue = [[9, 0]\n[9, 0]\n[8, 1]\n[1, 8]\n[9, 0]\n[9, 0]]"] ;
687 -> 688 ;
689 [label="entropy = 0.0\nsamples = 8\nvalue = [[8, 0]\n[8, 0]\n[8, 0]\n[0, 8]\n[8, 0]\n[8, 0]]"] ;
688 -> 689 ;
690 [label="entropy = 0.0\nsamples = 1\nvalue = [[1, 0]\n[1, 0]\n[0, 1]\n[1, 0]\n[1, 0]\n[1, 0]]"] ;
688 -> 690 ;
691 [label="X[420] <= 1.04\nentropy = 0.345\nsamples = 17\nvalue = [[14, 3]\n[17, 0]\n[5, 12]\n[15, 2]\n[17, 0]\n[17, 0]]"] ;
687 -> 691 ;
692 [label="X[905] <= 1.225\nentropy = 0.324\nsamples = 5\nvalue = [[2, 3]\n[5, 0]\n[5, 0]\n[3, 2]\n[5, 0]\n[5, 0]]"] ;
691 -> 692 ;
693 [label="entropy = 0.0\nsamples = 3\nvalue = [[0, 3]\n[3, 0]\n[3, 0]\n[3, 0]\n[3, 0]\n[3, 0]]"] ;
692 -> 693 ;
694 [label="entropy = 0.0\nsamples = 2\nvalue = [[2, 0]\n[2, 0]\n[2, 0]\n[0, 2]\n[2, 0]\n[2, 0]]"] ;
692 -> 694 ;
695 [label="entropy = 0.0\nsamples = 12\nvalue = [[12, 0]\n[12, 0]\n[0, 12]\n[12, 0]\n[12, 0]\n[12, 0]]"] ;
691 -> 695 ;
696 [label="entropy = 0.0\nsamples = 8\nvalue = [[8, 0]\n[8, 0]\n[8, 0]\n[8, 0]\n[8, 0]\n[0, 8]]"] ;
680 -> 696 ;
697 [label="X[760] <= 0.839\nentropy = 0.21\nsamples = 75\nvalue = [[74, 1]\n[74, 1]\n[75, 0]\n[75, 0]\n[10, 65]\n[67, 8]]"] ;
679 -> 697 ;
698 [label="entropy = 0.0\nsamples = 48\nvalue = [[48, 0]\n[48, 0]\n[48, 0]\n[48, 0]\n[0, 48]\n[48, 0]]"] ;
697 -> 698 ;
699 [label="X[127] <= 1.108\nentropy = 0.381\nsamples = 27\nvalue = [[26, 1]\n[26, 1]\n[27, 0]\n[27, 0]\n[10, 17]\n[19, 8]]"] ;
697 -> 699 ;
700 [label="X[297] <= 1.081\nentropy = 0.254\nsamples = 19\nvalue = [[18, 1]\n[18, 1]\n[19, 0]\n[19, 0]\n[3, 16]\n[18, 1]]"] ;
699 -> 700 ;
701 [label="X[392] <= 0.131\nentropy = 0.459\nsamples = 3\nvalue = [[2, 1]\n[2, 1]\n[3, 0]\n[3, 0]\n[3, 0]\n[2, 1]]"] ;
700 -> 701 ;
702 [label="entropy = 0.0\nsamples = 1\nvalue = [[0, 1]\n[1, 0]\n[1, 0]\n[1, 0]\n[1, 0]\n[1, 0]]"] ;
701 -> 702 ;
703 [label="X[613] <= 0.992\nentropy = 0.333\nsamples = 2\nvalue = [[2, 0]\n[1, 1]\n[2, 0]\n[2, 0]\n[2, 0]\n[1, 1]]"] ;
701 -> 703 ;
704 [label="entropy = 0.0\nsamples = 1\nvalue = [[1, 0]\n[1, 0]\n[1, 0]\n[1, 0]\n[1, 0]\n[0, 1]]"] ;
703 -> 704 ;
705 [label="entropy = 0.0\nsamples = 1\nvalue = [[1, 0]\n[0, 1]\n[1, 0]\n[1, 0]\n[1, 0]\n[1, 0]]"] ;
703 -> 705 ;
706 [label="entropy = 0.0\nsamples = 16\nvalue = [[16, 0]\n[16, 0]\n[16, 0]\n[16, 0]\n[0, 16]\n[16, 0]]"] ;
700 -> 706 ;
707 [label="X[26] <= 0.991\nentropy = 0.181\nsamples = 8\nvalue = [[8, 0]\n[8, 0]\n[8, 0]\n[8, 0]\n[7, 1]\n[1, 7]]"] ;
699 -> 707 ;
708 [label="entropy = 0.0\nsamples = 7\nvalue = [[7, 0]\n[7, 0]\n[7, 0]\n[7, 0]\n[7, 0]\n[0, 7]]"] ;
707 -> 708 ;
709 [label="entropy = 0.0\nsamples = 1\nvalue = [[1, 0]\n[1, 0]\n[1, 0]\n[1, 0]\n[0, 1]\n[1, 0]]"] ;
707 -> 709 ;
710 [label="X[781] <= 0.842\nentropy = 0.021\nsamples = 707\nvalue = [[707, 0]\n[707, 0]\n[707, 0]\n[703, 4]\n[5, 702]\n[706, 1]]"] ;
678 -> 710 ;
711 [label="X[514] <= 0.965\nentropy = 0.407\nsamples = 10\nvalue = [[10, 0]\n[10, 0]\n[10, 0]\n[6, 4]\n[5, 5]\n[9, 1]]"] ;
710 -> 711 ;
712 [label="entropy = 0.0\nsamples = 5\nvalue = [[5, 0]\n[5, 0]\n[5, 0]\n[5, 0]\n[0, 5]\n[5, 0]]"] ;
711 -> 712 ;
713 [label="X[47] <= 0.916\nentropy = 0.241\nsamples = 5\nvalue = [[5, 0]\n[5, 0]\n[5, 0]\n[1, 4]\n[5, 0]\n[4, 1]]"] ;
711 -> 713 ;
714 [label="entropy = 0.0\nsamples = 4\nvalue = [[4, 0]\n[4, 0]\n[4, 0]\n[0, 4]\n[4, 0]\n[4, 0]]"] ;
713 -> 714 ;
715 [label="entropy = 0.0\nsamples = 1\nvalue = [[1, 0]\n[1, 0]\n[1, 0]\n[1, 0]\n[1, 0]\n[0, 1]]"] ;
713 -> 715 ;
716 [label="entropy = 0.0\nsamples = 697\nvalue = [[697, 0]\n[697, 0]\n[697, 0]\n[697, 0]\n[0, 697]\n[697, 0]]"] ;
710 -> 716 ;
717 [label="X[1014] <= -0.793\nentropy = 0.615\nsamples = 5069\nvalue = [[4383, 686]\n[3760, 1309]\n[4580, 489]\n[3901, 1168]\n[4829, 240]\n[3892, 1177]]"] ;
607 -> 717 ;
718 [label="X[14] <= -0.76\nentropy = 0.177\nsamples = 1007\nvalue = [[1004, 3]\n[92, 915]\n[980, 27]\n[965, 42]\n[997, 10]\n[997, 10]]"] ;
717 -> 718 ;
719 [label="X[12] <= -0.881\nentropy = 0.027\nsamples = 868\nvalue = [[868, 0]\n[8, 860]\n[866, 2]\n[864, 4]\n[868, 0]\n[866, 2]]"] ;
718 -> 719 ;
720 [label="X[734] <= -1.071\nentropy = 0.494\nsamples = 15\nvalue = [[15, 0]\n[8, 7]\n[13, 2]\n[11, 4]\n[15, 0]\n[13, 2]]"] ;
719 -> 720 ;
721 [label="entropy = 0.0\nsamples = 7\nvalue = [[7, 0]\n[0, 7]\n[7, 0]\n[7, 0]\n[7, 0]\n[7, 0]]"] ;
720 -> 721 ;
722 [label="X[711] <= 0.401\nentropy = 0.437\nsamples = 8\nvalue = [[8, 0]\n[8, 0]\n[6, 2]\n[4, 4]\n[8, 0]\n[6, 2]]"] ;
720 -> 722 ;
723 [label="entropy = 0.0\nsamples = 4\nvalue = [[4, 0]\n[4, 0]\n[4, 0]\n[0, 4]\n[4, 0]\n[4, 0]]"] ;
722 -> 723 ;
724 [label="X[690] <= 0.896\nentropy = 0.333\nsamples = 4\nvalue = [[4, 0]\n[4, 0]\n[2, 2]\n[4, 0]\n[4, 0]\n[2, 2]]"] ;
722 -> 724 ;
725 [label="entropy = 0.0\nsamples = 2\nvalue = [[2, 0]\n[2, 0]\n[2, 0]\n[2, 0]\n[2, 0]\n[0, 2]]"] ;
724 -> 725 ;
726 [label="entropy = 0.0\nsamples = 2\nvalue = [[2, 0]\n[2, 0]\n[0, 2]\n[2, 0]\n[2, 0]\n[2, 0]]"] ;
724 -> 726 ;
727 [label="entropy = 0.0\nsamples = 853\nvalue = [[853, 0]\n[0, 853]\n[853, 0]\n[853, 0]\n[853, 0]\n[853, 0]]"] ;
719 -> 727 ;
728 [label="X[0] <= -0.351\nentropy = 0.556\nsamples = 139\nvalue = [[136, 3]\n[84, 55]\n[114, 25]\n[101, 38]\n[129, 10]\n[131, 8]]"] ;
718 -> 728 ;
729 [label="X[710] <= 0.23\nentropy = 0.555\nsamples = 81\nvalue = [[78, 3]\n[77, 4]\n[57, 24]\n[48, 33]\n[72, 9]\n[73, 8]]"] ;
728 -> 729 ;
730 [label="X[42] <= 0.196\nentropy = 0.473\nsamples = 20\nvalue = [[17, 3]\n[20, 0]\n[19, 1]\n[20, 0]\n[12, 8]\n[12, 8]]"] ;
729 -> 730 ;
731 [label="entropy = 0.0\nsamples = 8\nvalue = [[8, 0]\n[8, 0]\n[8, 0]\n[8, 0]\n[8, 0]\n[0, 8]]"] ;
730 -> 731 ;
732 [label="X[932] <= 0.181\nentropy = 0.357\nsamples = 12\nvalue = [[9, 3]\n[12, 0]\n[11, 1]\n[12, 0]\n[4, 8]\n[12, 0]]"] ;
730 -> 732 ;
733 [label="X[901] <= 0.535\nentropy = 0.27\nsamples = 4\nvalue = [[1, 3]\n[4, 0]\n[3, 1]\n[4, 0]\n[4, 0]\n[4, 0]]"] ;
732 -> 733 ;
734 [label="entropy = 0.0\nsamples = 1\nvalue = [[1, 0]\n[1, 0]\n[0, 1]\n[1, 0]\n[1, 0]\n[1, 0]]"] ;
733 -> 734 ;
735 [label="entropy = 0.0\nsamples = 3\nvalue = [[0, 3]\n[3, 0]\n[3, 0]\n[3, 0]\n[3, 0]\n[3, 0]]"] ;
733 -> 735 ;
736 [label="entropy = 0.0\nsamples = 8\nvalue = [[8, 0]\n[8, 0]\n[8, 0]\n[8, 0]\n[0, 8]\n[8, 0]]"] ;
732 -> 736 ;
737 [label="X[27] <= 0.608\nentropy = 0.403\nsamples = 61\nvalue = [[61, 0]\n[57, 4]\n[38, 23]\n[28, 33]\n[60, 1]\n[61, 0]]"] ;
729 -> 737 ;
738 [label="X[981] <= -1.194\nentropy = 0.258\nsamples = 38\nvalue = [[38, 0]\n[36, 2]\n[33, 5]\n[7, 31]\n[38, 0]\n[38, 0]]"] ;
737 -> 738 ;
739 [label="X[115] <= -1.632\nentropy = 0.217\nsamples = 6\nvalue = [[6, 0]\n[5, 1]\n[1, 5]\n[6, 0]\n[6, 0]\n[6, 0]]"] ;
738 -> 739 ;
740 [label="entropy = 0.0\nsamples = 1\nvalue = [[1, 0]\n[0, 1]\n[1, 0]\n[1, 0]\n[1, 0]\n[1, 0]]"] ;
739 -> 740 ;
741 [label="entropy = 0.0\nsamples = 5\nvalue = [[5, 0]\n[5, 0]\n[0, 5]\n[5, 0]\n[5, 0]\n[5, 0]]"] ;
739 -> 741 ;
742 [label="X[897] <= -2.082\nentropy = 0.067\nsamples = 32\nvalue = [[32, 0]\n[31, 1]\n[32, 0]\n[1, 31]\n[32, 0]\n[32, 0]]"] ;
738 -> 742 ;
743 [label="entropy = 0.0\nsamples = 1\nvalue = [[1, 0]\n[0, 1]\n[1, 0]\n[1, 0]\n[1, 0]\n[1, 0]]"] ;
742 -> 743 ;
744 [label="entropy = 0.0\nsamples = 31\nvalue = [[31, 0]\n[31, 0]\n[31, 0]\n[0, 31]\n[31, 0]\n[31, 0]]"] ;
742 -> 744 ;
745 [label="X[917] <= 1.168\nentropy = 0.311\nsamples = 23\nvalue = [[23, 0]\n[21, 2]\n[5, 18]\n[21, 2]\n[22, 1]\n[23, 0]]"] ;
737 -> 745 ;
746 [label="entropy = 0.0\nsamples = 16\nvalue = [[16, 0]\n[16, 0]\n[0, 16]\n[16, 0]\n[16, 0]\n[16, 0]]"] ;
745 -> 746 ;
747 [label="X[968] <= 1.214\nentropy = 0.53\nsamples = 7\nvalue = [[7, 0]\n[5, 2]\n[5, 2]\n[5, 2]\n[6, 1]\n[7, 0]]"] ;
745 -> 747 ;
748 [label="X[633] <= 0.821\nentropy = 0.444\nsamples = 5\nvalue = [[5, 0]\n[3, 2]\n[5, 0]\n[3, 2]\n[4, 1]\n[5, 0]]"] ;
747 -> 748 ;
749 [label="entropy = 0.0\nsamples = 2\nvalue = [[2, 0]\n[2, 0]\n[2, 0]\n[0, 2]\n[2, 0]\n[2, 0]]"] ;
748 -> 749 ;
750 [label="X[387] <= 0.929\nentropy = 0.306\nsamples = 3\nvalue = [[3, 0]\n[1, 2]\n[3, 0]\n[3, 0]\n[2, 1]\n[3, 0]]"] ;
748 -> 750 ;
751 [label="entropy = 0.0\nsamples = 1\nvalue = [[1, 0]\n[1, 0]\n[1, 0]\n[1, 0]\n[0, 1]\n[1, 0]]"] ;
750 -> 751 ;
752 [label="entropy = 0.0\nsamples = 2\nvalue = [[2, 0]\n[0, 2]\n[2, 0]\n[2, 0]\n[2, 0]\n[2, 0]]"] ;
750 -> 752 ;
753 [label="entropy = 0.0\nsamples = 2\nvalue = [[2, 0]\n[2, 0]\n[0, 2]\n[2, 0]\n[2, 0]\n[2, 0]]"] ;
747 -> 753 ;
754 [label="X[744] <= -0.171\nentropy = 0.201\nsamples = 58\nvalue = [[58, 0]\n[7, 51]\n[57, 1]\n[53, 5]\n[57, 1]\n[58, 0]]"] ;
728 -> 754 ;
755 [label="X[893] <= -1.68\nentropy = 0.217\nsamples = 6\nvalue = [[6, 0]\n[6, 0]\n[5, 1]\n[1, 5]\n[6, 0]\n[6, 0]]"] ;
754 -> 755 ;
756 [label="entropy = 0.0\nsamples = 1\nvalue = [[1, 0]\n[1, 0]\n[0, 1]\n[1, 0]\n[1, 0]\n[1, 0]]"] ;
755 -> 756 ;
757 [label="entropy = 0.0\nsamples = 5\nvalue = [[5, 0]\n[5, 0]\n[5, 0]\n[0, 5]\n[5, 0]\n[5, 0]]"] ;
755 -> 757 ;
758 [label="X[899] <= 1.145\nentropy = 0.046\nsamples = 52\nvalue = [[52, 0]\n[1, 51]\n[52, 0]\n[52, 0]\n[51, 1]\n[52, 0]]"] ;
754 -> 758 ;
759 [label="entropy = 0.0\nsamples = 51\nvalue = [[51, 0]\n[0, 51]\n[51, 0]\n[51, 0]\n[51, 0]\n[51, 0]]"] ;
758 -> 759 ;
760 [label="entropy = 0.0\nsamples = 1\nvalue = [[1, 0]\n[1, 0]\n[1, 0]\n[1, 0]\n[0, 1]\n[1, 0]]"] ;
758 -> 760 ;
761 [label="X[0] <= -0.567\nentropy = 0.609\nsamples = 4062\nvalue = [[3379, 683]\n[3668, 394]\n[3600, 462]\n[2936, 1126]\n[3832, 230]\n[2895, 1167]]"] ;
717 -> 761 ;
762 [label="X[1023] <= 1.348\nentropy = 0.56\nsamples = 2607\nvalue = [[2091, 516]\n[2460, 147]\n[2276, 331]\n[2181, 426]\n[2552, 55]\n[1475, 1132]]"] ;
761 -> 762 ;
763 [label="X[554] <= 0.905\nentropy = 0.527\nsamples = 1717\nvalue = [[1689, 28]\n[1589, 128]\n[1396, 321]\n[1320, 397]\n[1667, 50]\n[924, 793]]"] ;
762 -> 763 ;
764 [label="X[37] <= -0.86\nentropy = 0.566\nsamples = 1279\nvalue = [[1252, 27]\n[1160, 119]\n[966, 313]\n[885, 394]\n[1231, 48]\n[901, 378]]"] ;
763 -> 764 ;
765 [label="X[0] <= -1.103\nentropy = 0.181\nsamples = 195\nvalue = [[192, 3]\n[194, 1]\n[193, 2]\n[19, 176]\n[183, 12]\n[194, 1]]"] ;
764 -> 765 ;
766 [label="X[1] <= 0.412\nentropy = 0.432\nsamples = 20\nvalue = [[17, 3]\n[20, 0]\n[19, 1]\n[16, 4]\n[8, 12]\n[20, 0]]"] ;
765 -> 766 ;
767 [label="X[37] <= -1.56\nentropy = 0.507\nsamples = 10\nvalue = [[7, 3]\n[10, 0]\n[9, 1]\n[6, 4]\n[8, 2]\n[10, 0]]"] ;
766 -> 767 ;
768 [label="X[571] <= 0.981\nentropy = 0.428\nsamples = 6\nvalue = [[3, 3]\n[6, 0]\n[5, 1]\n[6, 0]\n[4, 2]\n[6, 0]]"] ;
767 -> 768 ;
769 [label="entropy = 0.0\nsamples = 3\nvalue = [[0, 3]\n[3, 0]\n[3, 0]\n[3, 0]\n[3, 0]\n[3, 0]]"] ;
768 -> 769 ;
770 [label="X[252] <= 1.081\nentropy = 0.306\nsamples = 3\nvalue = [[3, 0]\n[3, 0]\n[2, 1]\n[3, 0]\n[1, 2]\n[3, 0]]"] ;
768 -> 770 ;
771 [label="entropy = 0.0\nsamples = 2\nvalue = [[2, 0]\n[2, 0]\n[2, 0]\n[2, 0]\n[0, 2]\n[2, 0]]"] ;
770 -> 771 ;
772 [label="entropy = 0.0\nsamples = 1\nvalue = [[1, 0]\n[1, 0]\n[0, 1]\n[1, 0]\n[1, 0]\n[1, 0]]"] ;
770 -> 772 ;
773 [label="entropy = 0.0\nsamples = 4\nvalue = [[4, 0]\n[4, 0]\n[4, 0]\n[0, 4]\n[4, 0]\n[4, 0]]"] ;
767 -> 773 ;
774 [label="entropy = 0.0\nsamples = 10\nvalue = [[10, 0]\n[10, 0]\n[10, 0]\n[10, 0]\n[0, 10]\n[10, 0]]"] ;
766 -> 774 ;
775 [label="X[128] <= 0.402\nentropy = 0.046\nsamples = 175\nvalue = [[175, 0]\n[174, 1]\n[174, 1]\n[3, 172]\n[175, 0]\n[174, 1]]"] ;
765 -> 775 ;
776 [label="entropy = 0.0\nsamples = 172\nvalue = [[172, 0]\n[172, 0]\n[172, 0]\n[0, 172]\n[172, 0]\n[172, 0]]"] ;
775 -> 776 ;
777 [label="X[870] <= 1.146\nentropy = 0.459\nsamples = 3\nvalue = [[3, 0]\n[2, 1]\n[2, 1]\n[3, 0]\n[3, 0]\n[2, 1]]"] ;
775 -> 777 ;
778 [label="entropy = 0.0\nsamples = 1\nvalue = [[1, 0]\n[1, 0]\n[0, 1]\n[1, 0]\n[1, 0]\n[1, 0]]"] ;
777 -> 778 ;
779 [label="X[40] <= -1.77\nentropy = 0.333\nsamples = 2\nvalue = [[2, 0]\n[1, 1]\n[2, 0]\n[2, 0]\n[2, 0]\n[1, 1]]"] ;
777 -> 779 ;
